0,03527506,-0,3789765,0,5719424,-0,3377994,-0,7402244,0,003199773,-0,3598132,0,3039624,0,3504476,-0,2432555,0,1223481,-2,661369,0,3024463,-0,01816582,0,1452588,0,2897059,0,1758447,-0,162829,-0,07315042,0,1792227,0,5463362,0,2759153,0,2989829,-2,682164,0,3111435,-0,00452462,-0,124768,0,425574,-0,1442793,-0,2310097,-0,09505202,0,06813113,0,3158484,0,1254545,0,09753455,-2,935126,-0,2810849,-0,1526537,0,2011605,0,5024242,-0,07167018,-0,1782312,-0,4427074,0,2380118,0,4220012,-0,1577613,0,3510932,-2,744714,-0,2576656,0,02580083,0,3130028,0,3849586,-0,2858264,0,1409872,-0,2288104,0,3877786,0,1693913,0,1129456,0,2854016,-2,69969,-0,4157949,-2,56,0,6986172,1,403247,-1,502956,-0,6583109,-3,526175,-1,24101,-1,666057,-2,035785,0,1170594,-0,7275136,0,008179083,0,2195559,0,3466974,0,1194196,0,1871637,0,2246622,0,08682524,0,3581402,0,1991468,0,3077606,0,400105,-2,703816,-0,4100319,0,1279798,0,5211501,0,2101562,-0,2405881,0,03313313,-0,239859,0,4822895,0,195987,-0,1569967,0,2569553,-2,88189,0,1937101,0,1914601,0,00613855,0,05130541,-0,3460097,-0,2255648,-0,6766502,0,5189159,0,1675571,-0,1818897,0,1863011,-2,784279,0,4228243,0,203666,0,2817253,0,1293882,0,362947,-0,1487916,-0,05097669,0,3465839,0,2742987,0,1923691,0,3502951,-2,792567,-0,08762518,0,1759199,0,3288604,0,1434686,0,06857173,0,0400298,-0,3245989,0,1535289,0,2167437,0,1102154,0,3947702,-2,869303,-1,783071,0,08465877,-2,545075,-2,302804,0,5835701,0,4044597,1,338667,0,5523613,0,4526288,0,5344969,-0,2565184,-3,233246,-0,1896899,0,04952967,0,1795137,0,645925,-0,1245059,-0,2097343,0,08930078,0,3159823,0,4141389,0,1934589,-0,004259723,-2,911886,-0,3289759,0,3246488,0,4670564,0,4536781,0,1580226,0,02251346,-0,06643506,0,5310689,0,2241092,0,277642,0,02259956,-2,785025,-0,3736814,-2,930389,-0,8392031,-0,5356947,0,7826641,0,396722,2,495169,0,5713154,0,7364805,0,7968023,0,1911294,-3,609888,-0,1753421,0,1078567,0,4396576,-0,1735218,-0,1480621,-0,1739759,-0,7306134,0,1039217,0,06428979,-0,01458048,0,3876166,-2,892906,0,1579978,0,1543693,0,4238032,-0,06243526,-0,0451501,0,09430181,-0,1438482,0,14954,0,4690115,0,2079119,0,1335795,-2,887543,0,3183104,0,2345925,-0,08598492,0,3131579,0,03280362,-0,1440841,-0,2983979,0,09647946,0,03889445,0,2709702,0,3688071,-2,956802,0,1178077,-0,1376875,-0,1048248,0,2341389,-0,4600881,-0,15799,-0,6516304,0,3038132,0,1407315,0,203944,0,5403321,-2,661724,0,4601939,-0,465257,-0,710775,0,9625579,-0,3260308,0,1192128,-0,1669007,0,5113029,0,1045009,0,1201367,0,1876148,-2,617971,-0,322193,-0,4358749,-0,3845861,-0,5139166,-0,5316322,-0,1171666,-0,5617919,-0,441179,-0,5291333,-0,395268,-0,5429215,-0,4205185,-0,4812804,-0,4444875,-0,8210432,-0,5403069,-0,5245835,-0,5192928,-0,3761571,-0,2878858,0,9307012,-1,003783,-0,2596331,-0,4504644,-0,5901994,-0,4283533,-1,547427,-0,1685078,-0,520827,-0,4796491,-0,2218026,-0,2789031,2,705851,-0,4336304,-0,3749295,1,01936,-0,6960653,-0,307938,-0,4757615,-0,6794615,-0,917621,0,7104533,-0,3835518,-0,1379509,-0,4489026,-0,4144271,-0,2636663,-1,865944,-0,2302691,-0,3134177,-0,321391,-0,3397175,-0,4033521,0,1338139,-0,4893591,-0,2247673,-1,106972,-0,4295547,-0,2461871,-0,4461214,-0,2103542,-0,3420945,0,5872502,-0,3706712,-0,4769065,-0,4649117,-0,4716801,-0,530484,-0,2278057,-0,4460267,-0,6519962,-0,5036924,-0,4099352,-0,5558043,-0,4068255,-0,4600644,-0,3772752,-0,7835471,-0,4886729,-0,5261159,-0,5504482,-0,3581692,-0,3784482,0,8198848,-0,5015468,-0,3040475,-0,4830819,-0,4255852,-0,3643433,-0,3824882,-0,3762643,-0,5880031,-0,5438552,-0,4651327,-0,4333327,-0,3819984,-0,4916638,-0,5383515,-1,258156,-0,512116,-0,5579336,-0,5985306,-0,2686488,-0,3106198,0,7373623,-0,4085269,-0,353781,-0,5248502,-0,4556403,-0,5386936,-0,5854244,-0,4456618,-0,5693903,-0,5496938,-0,3860622,-0,5310928,-0,2852654,-0,553296,-0,3945621,-0,6049572,-0,5518878,-0,3908651,-0,4934261,-0,4123439,-0,4025251,0,9392248,-0,4029438,-0,4485368,-0,5567819,-0,3924886,-0,3931787,-0,621816,-0,4910559,-0,5970188,-0,4163642,-0,3334922,-0,5000958,-0,319447,-0,6152486,-0,4821217,-0,6364092,-0,5776359,-0,5462583,-0,4564137,-0,3527766,-0,3976637,0,8610303,-0,2894248,-0,5266005,-0,4319921,-0,3393838,-0,4883953,-0,2612752,-0,3271254,-0,5657606,-0,3988242,-0,4794449,-0,4155511,-0,4840422,-0,4045387,-0,4915571,-1,514064,-0,5600852,-0,4058343,-0,4679848,-0,3978939,-0,3868082,0,8990052,-0,598472,-0,1139751,-0,3579356,-0,6990627,-0,6214738,-0,6891702,0,02851594,-0,6835905,-0,5941274,0,1123343,-0,2872724,2,013645,-0,4545886,-0,4935104,2,227129,-0,4547413,-0,2125669,-0,2208942,-0,7105929,-0,8247983,0,4739736,-0,4120843,-0,2959806,-0,4658946,-0,4731835,-0,4689804,-0,3808016,-0,3976782,-0,4477174,-0,5333872,-0,4583464,-0,5228925,-0,4174072,-0,6064373,-0,4824235,-1,11355,-0,4666998,-0,4766558,-0,4177509,-0,311193,-0,383447,0,948795,-0,3947565,-0,3198859,-0,5322541,-0,3904681,-0,4025124,-0,068034,-0,3729683,-0,6515357,-0,545277,-0,4179967,-0,4660006,-0,5088769,-0,4402574,-0,5703244,-0,7900407,-0,5073723,-0,4295548,-0,6393152,-0,4712525,-0,2996812,0,8945369,-0,5290114,-0,418834,-0,5818788,-0,3563311,-0,3405069,-0,1098172,-0,3772504,-0,6390379,-0,4237218,-0,4816502,-0,6210055,-0,5315872,-0,5989189,-0,3909053,-0,7524428,-0,4293623,-0,458296,-0,4864569,-0,4390242,-0,277042,0,9333726,-0,4042373,-0,3502159,-0,4786922,-0,4157916,-0,4143735,-0,7479053,-0,3413433,-0,5511072,-0,414812,-0,5087487,-0,5786623,-0,3087649,-0,5659183,-0,5580024,-0,6433125,-0,5365461,-0,4483918,-0,5001415,-0,4306259,-0,5015424,0,7405016,-0,3537241,-0,4040986,-0,5297263,-0,5695945,-0,4319828,-0,2280658,-0,428893,-0,4884108,-0,4406111,-0,3390397,-0,4231264,-0,3777622,-0,4923476,-0,4935995,-0,9235315,-0,6115613,-0,414109,-0,6081393,-0,3121962,-0,3860506,0,9973588,-0,2999682,-0,3342367,-0,4194589,-0,4976551,-0,390643,0,03726046,-0,3558192,-0,6092554,-0,5765181,-0,5224653,-0,465431,-0,4287319,-0,5493383,-0,3631051,-0,7798365,-0,518958,-0,5202122,-0,5195541,-0,4326772,-0,4712696,0,941844,-0,3436833,-0,3770367,-0,5416684,-0,3618747,-0,3488029,0,3959192,-0,3882005,-0,6026072,-0,3537636,-0,3895179,-0,5705532,-0,5806661,-0,5611787,-0,561655,-0,9862292,-0,5436438,-0,5562199,-0,5307836,-0,2880534,-0,2485296,0,8755432,-0,315751,-0,3315837,-0,442237,-0,3692525,-0,4144569,0,785497,-0,5275949,-0,4301032,-0,4453382,-0,5802994,-0,4751004,-0,7105678,-0,490431,-0,557694,-1,053526,-0,5926671,-0,4430975,-0,5194247,-0,4755568,-0,2900548,0,8601304,-0,5214207,-0,2949145,-0,5358032,-0,3810031,-0,4617535,-0,2285542,-0,4160322,-0,5974202,-0,5565933,-0,4768998,-0,3979548,-0,4873627,-0,4825493,-0,3654939,-0,7281364,-0,457257,-0,5678193,-0,5070899,-0,4182639,-0,5282934,0,9088176,-0,4407952,-0,4219082,-0,484602,-0,3514879,-0,3156229,-0,08155782,-0,4506148,-0,5926801,-0,5144747,-0,4429715,-0,5022321,-0,4037205,-0,4749619,-0,4262536,-0,9825352,-0,4435675,-0,3727491,-0,55452,-0,4671913,-0,484574,0,9144708,-0,305259,-0,4894464,-0,3462416,-0,310231,-0,4550673,0,3632182,-0,4454782,-0,5366442,-0,5463084,-0,3780805,-0,4265561,-0,5460405,-0,4241163,-0,4980832,-0,8631821,-0,588265,-0,5301952,-0,5990929,-0,4320843,-0,4072317,0,7852122,2,254541,33,34938,6,882297,3,080422,2,736239,4,360177,4,634483,2,190792,40,62551,2,831239,2,32619,2,37633,4,941745,3,182041,2,599433,1,474421,0,958715,2,91439,2,230013,1,507731,2,718532,10,88319,33,1159,19,30689,14,37573,12,03717,17,11448,17,84233,9,907565,40,28974,12,59394,11,48279,11,77015,17,9272,15,13051,13,25172,9,981264,9,908523,13,83852,10,91982,8,884133,2,729486,35,71017,33,05678,42,95374,39,49207,37,30401,42,09507,42,72012,35,50416,39,97064,37,76384,36,39382,36,38749,42,80748,40,1804,38,91435,36,34007,37,02307,39,00551,35,88726,34,81321,2,76155,2,321587,33,28294,7,124189,3,209283,2,802064,4,527277,4,765966,2,283066,40,4169,2,872279,2,376193,2,46135,5,129795,3,325201,2,680484,1,497028,1,068179,3,08712,2,380632,1,553836,2,718755,
