0,305664097920875,0,134119576043602,-0,0114052436795448,0,314002204738437,0,361251952535195,0,0193496463618372,0,0837231924721051,0,161487334937738,0,0675180761641262,0,00553228716217894,-0,498160270155086,-0,0810052312512358,0,256758080307149,0,139570422495519,-1,6731504462653,0,512556735801264,0,105072155769491,0,0876651114566261,0,238099711057806,0,465522003994618,-0,0968169296832628,-0,135345854084092,0,0468636811536003,-0,0135722273998653,-0,137553497642166,-0,439698063784039,-0,0148463315003864,-0,0269805046312319,0,303306709817522,-1,40449760399194,0,433485477488448,0,0247936035856862,-0,271194192814941,0,165302525231867,0,237598693905507,-0,163155780827121,0,00812496594451245,0,149449994235525,0,0392273061149218,0,179187440408068,-0,509234596990788,-0,0814458255987471,0,201025710437507,0,2404331689077,-1,51826317312626,0,290332501905017,0,331273158265474,-0,0148253145954935,0,408104116245497,0,424471646726655,-0,0262727531183455,-0,106849612217958,-0,10521474816188,0,010098029310472,-0,0893774681716212,-0,438569386125969,-0,223355390048416,0,203113271994128,0,0237248794223415,-1,55124650074478,0,552452345194956,0,254742351725973,-0,00796189634784617,0,287461058657708,0,42253008718942,-0,068895903117494,0,136101449731845,0,11291444479713,-0,056905939374473,0,092665276189567,-0,531173401938926,-0,379396328693577,0,125245963718959,-0,0425436154090372,-1,55051483782423,0,477688844926045,0,117643041115484,-0,0444142330947639,0,297388126436328,0,300975494031479,-0,0102398263057196,0,0403455155946016,0,007627503519474,0,0503793811092889,-0,129447998337947,-0,695598261428226,-0,441929927489307,-0,0452454363452173,0,0529163748195592,-1,71808874026814,0,413242187118138,0,253622478143839,0,0119532209949689,0,273103220588551,0,671260926626254,0,0342060632983035,0,0584967497135726,0,0557258326972767,0,109687292639365,-0,0879352001452991,-0,446155358509305,-0,329458469208628,-0,121757738931721,0,0398055476435476,-1,63108707131733,0,324218870024915,0,260472971412233,-0,0379156467494102,0,202716081420623,0,533213257170711,-0,162969170746417,-0,119515843877098,-0,0617479368369466,-0,16024165137019,0,0903607193233294,-0,508390066606593,-0,397685380077594,0,048631477873627,-0,0585144814838923,-1,61826889699808,0,361811653334355,0,208859384709485,0,00110890896403112,0,257138035049901,0,484976847456847,-0,0636761711746098,0,145569393410952,-0,000607872017628388,-0,130594061772852,-0,0303210087189895,-0,390135197679639,-0,0334400724587994,0,262457168481736,0,0371115480621101,-1,71791656732039,0,541137783334468,0,075645710248581,0,00580263313761791,0,0483500843018613,0,270151562012411,0,154212536957995,0,0784391105410107,0,0379755903585808,0,0814158080000645,0,0929773126476916,-0,33358767641025,-0,237758160488966,0,0582318333625225,0,250530310536957,-1,40597695471491,0,344684529525228,0,392800158677797,-0,116535463074413,0,478963753534873,0,613485741460368,0,103018313360421,-0,092185630988744,0,0579111457635786,-0,114933931506676,-0,0139187266314267,-0,747413008496341,-0,532147410495215,-0,123513492675743,0,150832416155926,-1,82490401187556,0,500526629215829,0,242900009901511,-0,157485841453698,0,288683902699533,0,623795703205424,-0,0464534723466927,0,138790330748141,-0,119049807970342,0,11820592850006,-0,127239603863518,-0,0190131088587998,-0,114451110824605,0,319523216903326,0,141660607697004,-1,75434368316636,0,265305610204624,0,14591856816654,-0,0189450393301141,0,323437721113085,0,318409945476966,-0,0280825763245519,-0,0835546466691505,0,00883914433186891,0,0157412958223194,0,0580521121986816,-0,158765828510163,0,043337850832646,0,314070975648743,0,283986647966331,-1,46348571624974,0,318606098693606,0,117761147699016,-0,187069523803477,0,170342030018981,0,418261210300511,-0,125793581926865,0,140914476403436,0,138335398895396,0,119152182512053,0,167606639547605,-0,0658437857346261,-0,0722019846167153,0,312663960677064,0,21064061149148,-1,50990675428408,0,384176393211842,0,222624665718596,0,00248198961904152,0,441300142129969,0,367357142939317,-0,117924099572375,0,0903603551350021,-0,0472224351587176,-0,129646515488204,0,0176441106816291,-0,504912008938887,-0,271112424999134,-0,0110132385416606,0,0688090455484601,-1,79076676772911,0,322592561152193,0,329154771172952,-0,196078099659976,0,171977273410029,0,397529475768876,0,098935383445961,-0,079874133998026,-0,143424061303918,0,0505045719358138,-0,0901644101008537,-0,352641178445955,-0,135523453552963,0,233841824773851,0,259953657214831,-1,58849113663477,0,53189434640255,0,0319572163501768,-0,12905452225688,0,0748547234704565,0,452425363823348,-0,11401205082867,-0,0114134118943231,-0,130109362552423,-0,108917269984302,0,0661981387509528,-0,474889193563033,-0,107704954701192,0,231055274087426,0,00665371399511707,-1,37821873349174,0,429246425534086,0,0902306699928531,-0,0165214374256886,0,351235510019884,0,496634577424973,0,0800377161218102,0,185354519400246,-0,166520668527783,0,140535103559819,0,079877660647242,-0,25908275847926,-0,30810369420715,0,0933733421656589,0,0410672727896234,-1,71372634996584,0,479930598404729,0,0473507384401255,0,0294309880282411,0,312335181440667,0,449102933682688,-0,0169132040485033,-0,0736922008841649,-0,0748428562011108,-0,140825202196553,-0,105310557290306,-0,260030623205962,-0,095196052208136,0,157972605154692,0,276957558968212,-1,76227316860659,0,429659810716384,0,134422693081854,-0,149263000714076,0,0930445557505378,0,482449697275711,0,0406333837998369,0,0712554355561041,0,0555839497406762,-0,038057088890713,-0,00805577855887923,-0,48054685549469,-0,307965179547248,0,259860894775938,0,304522199671698,-1,44290817955246,0,358236856126818,0,208917341406962,0,0659078594300383,0,446338713538288,0,581510604851096,0,103698683139543,-0,0397411693211157,0,120976922358108,-0,142320197408248,0,0373510331584566,-0,43529977750362,-0,477534412206589,-0,10101864688231,0,0481797698075525,-1,84088191848294,0,357608920631961,0,0982748921312627,-0,0665275184306588,0,157872069355117,0,481198952502229,-0,085482944370987,0,109482359693128,-0,0177490494628398,0,0480053964807068,0,0714950133937268,-0,248414826217246,-0,282367461624421,-0,066203834792754,-0,0224635488870233,-1,69782710631047,0,285701903767668,0,177156493420066,-0,12643734002444,0,0750816497805825,0,464396326681645,-0,0876654206434264,0,182630495620431,-0,158578806565131,0,158014247509129,0,183711165861875,-0,35378482283307,-0,0505458076019561,0,222686903441399,0,255658350694453,-1,57869943978971,0,36793288217265,0,287118219278428,-0,0127243563507274,0,29946978870694,0,457204319336171,0,097370335452055,-0,113439214625282,0,0784346641415268,0,135124193842724,-0,0985461119061637,-0,418527427657439,-0,0771224900178021,0,0345730022147204,0,287353219451356,-1,69684835946854,0,43735091251391,0,248442129553433,-0,0556617299308835,0,142457762228932,0,575409629592972,0,118144942689189,-0,0731766826751499,0,0108801935635042,-0,153803473926916,-0,0377021863662388,-0,312413418311081,-0,309313635782173,-0,0901821933220502,-0,0378174554544313,-1,48427066207725,0,270912850799016,0,357386810099989,0,0786067400527502,0,429356824615453,0,410596848495574,0,0435273322764445,0,174064811429491,0,116344601349538,-0,159871773271339,0,147750995850101,-0,532897653066168,-0,313261256126693,0,104079178917728,0,036783105534153,-1,73117406034803,0,318280730200442,0,136698722702035,-0,206057625973105,0,171119264274508,0,551010563865977,-0,0268329394212652,0,047640312017643,-0,024130918752207,-0,142458563111248,-0,10082444560933,-0,516480085725446,-0,135753879145127,0,10838667671207,0,159580463028348,-1,51744601802584,0,452445518055306,0,175864828550543,-0,0379424239816473,0,210611915917042,0,350267900603193,0,14420139651151,0,180427255852385,-0,0750136609289307,0,120307792636326,0,127334290644048,-0,500235281636284,-0,111236627421341,-0,0604900363172587,0,15407248325747,-1,75933573296485,0,299212674571926,0,188943270505216,0,00985381986500357,0,471601041285211,0,445036121229169,-0,0312417508075694,0,151791140984434,0,0814127974563249,0,0283421009863046,-0,126419672006739,-0,210368775710194,-0,269017844784529,0,115608485608605,0,12888548374211,-1,48324365267487,0,266138122610206,0,314517313802466,-0,0639960293792028,0,424835891845763,0,525581865704798,-0,00519413698701901,0,0755371916317648,-0,00957100864170461,-0,0757028031785232,0,104904664654597,-0,370224868107302,-0,150346918252539,-0,0568267637487269,0,280959236843103,-1,52400087175357,0,318724500277151,0,359013839071347,0,0852095611584383,0,353711528466572,0,561047692208526,-0,158236440626204,0,157503024395809,0,0564256809648606,0,0641588558004709,-0,139298082038465,-0,168366628598858,-0,220565882674884,-0,0248452688907771,0,238443675022556,-1,84237487234342,0,535429465742529,0,312525765289084,-0,0795194892970579,0,471891944945299,0,744958540923236,0,0877708345399048,0,0919202093847071,0,0303193494108228,-0,122141032068116,0,101442206168042,-0,559152029261141,-0,420890109991613,-0,0143662598228014,-0,0165071863953063,-1,67651215390569,0,349330681877681,0,275782998749532,-0,276277645519039,0,0666907941423369,0,245051053562143,-0,0367972740310202,-0,0735895425368861,-0,0701680305089692,0,13773883457292,-0,133255180929214,-0,694681898618104,-0,546712737439239,0,131237106942171,0,196899274122667,-1,61549005803485,0,333838263852414,0,314648344442719,-0,148584583065816,0,387648761933945,0,364184331080629,0,0412509856006577,0,162561899166187,0,0947724301516143,-0,00152093594760963,0,0171238254204547,-0,0773225141390711,0,00655841856293685,0,17899314706752,0,20384223523554,-1,4305463689304,0,416282204107423,0,252272511619806,0,15408001845956,0,191899022461956,0,572370401803072,0,109698636142926,0,096161855138335,0,0378862437592048,0,150049243103089,-0,0707746467280469,0,0617776732231149,0,10370962706053,0,253412596668934,0,366801461386901,-1,63320522016594,0,322383682040196,0,19757465450728,0,0363392133990166,0,503394786102612,0,476924114195871,-0,000477440815741877,-0,0197876696893206,-0,142446362670352,-0,15047732725965,0,0541183952957864,-0,614328713678223,-0,307798663721493,0,120496134989759,-0,0660150529221707,-1,73325675043224,0,430534147912411,0,195884281082298,-0,162248386169399,0,469306102781415,0,616078101478555,-0,0703518190900513,0,164736764356245,0,0306731967488732,-0,00695827443845945,-0,0883315762207047,-0,274777227705637,-0,329349227759291,0,262490568614968,0,293769746753192,-1,7655127376387,0,468285094943806,0,245945293117032,-0,181380152380831,0,295957153096602,0,436502086233853,0,0361870977032264,-0,073474086781551,-0,0388846449524019,-0,145026165287974,0,0369362693078854,-0,636178267003969,-0,354954934430999,-0,0964773615549897,0,152137619528165,-1,62977811044125,0,357029842818725,0,186414327517185,0,00559550145678685,0,36240682219703,0,562998593867315,-0,170070829384618,0,126295466313036,-0,0558060297500798,-0,070247402644355,0,148913311236407,-0,50438143087553,-0,500557023647581,-0,0159390762055914,-0,0960741520765627,-1,77762890550211,0,534723794085462,0,241636165967157,-0,108988578710816,0,194694342002049,0,653041125591191,0,0245609431700333,0,0332386974953108,-0,084056580118115,0,022159882840574,0,152503263859733,-0,180353260911718,-0,334196254267138,0,22647204375451,0,193281075999635,-1,69693311263305,0,477705809123766,0,184460987069885,-0,15722502851569,0,414365856475324,0,500680995489757,-0,144032692872815,-0,125634439589547,-0,164451007618342,-0,0768096636271206,0,00578548801332891,-0,483814005753713,-0,180324580713517,-0,0370378839339635,0,122948138466766,-1,56035455071077,0,369853562922054,0,304385193069814,-0,20872040719838,0,0139981523234578,0,173724643177991,0,15171328885537,0,0703149778646646,-0,170392662376457,0,0273153317052669,-0,0404561296613472,-0,494037120917255,-0,369634305821272,-0,105254219102345,0,0578890282316878,-1,62870284841467,0,476069743468375,0,216874050780994,0,0916011992436483,0,142210054855007,0,598268813436463,-0,12615219601254,0,114284860538532,0,0231053304376306,-0,0900373114916712,-0,132173865751423,-0,35286269211322,-0,236035110821239,0,217708493101639,0,0791600670432199,-1,8173034356555,0,554879370910748,0,0836323942238924,-0,117003238378584,0,0312019392957469,0,146398124007491,-0,0913039737154278,-0,0478625963073777,-0,164849988874747,0,0957622816771112,0,0661320071835278,-0,568359085189647,-0,38631240542301,0,12577143952471,0,170513440105609,-1,41468587823065,0,488639731266826,0,193894958203553,-0,016948958517724,0,162791512686793,0,311243299303679,0,0850258513474978,-0,116259723500846,0,0931212472095271,0,0642534707164971,-0,10437544990349,-0,113829522494021,0,0300362416767792,0,0682499153902764,0,360390629950604,-1,31543947731413,0,475040305917482,0,347865776463902,-0,117306721942735,0,407865172633681,0,724496736371428,-0,0666424737571872,0,00260639790473529,0,0979100881024571,-0,116390998681252,-0,135594347470546,-0,502881005955997,-0,408506472459012,-0,0641566644381493,0,154035843425595,-1,75781666843628,0,32768602588146,0,071636143512456,-0,0871457069776768,0,266897408078092,0,322961471065346,-0,138715803413773,-0,0187816559597947,-0,00559577509984408,0,105604196251884,0,00405051446682619,-0,433295654315074,-0,497920606376449,-0,0788648691491888,0,155640445492208,-1,5556811227824,0,331076975530562,0,215943905201473,0,122330963886826,0,405762937710655,0,577705200715802,0,00577589092424871,-0,0402546824228623,-0,155489149719153,-0,0433524813592522,-0,0849615169662742,-0,214362869789869,-0,0469391895215736,0,128050870814072,0,342913406004346,-1,56215747856381,0,458422388153487,0,1425150126351,-0,00996285699205216,0,167908704554865,0,593937678603545,0,0255958819015653,0,172133518160738,0,00895479096507928,-0,0148282365900386,0,120202228622273,0,0654855696425967,0,0300000607151294,0,3519369352305,0,319496617109154,-1,75326927947989,0,356535491734985,0,237303697389273,-0,167239857715369,0,211325403694201,0,471326221340632,0,00212650052244013,0,138784375663286,0,13678433182522,0,142353674797997,-0,0691174203768863,-0,420632255880831,-0,329725594535575,0,0585997007152652,0,0553498452253736,-1,77465116819341,0,487168606218475,0,0349561201989605,-0,0535260686532696,0,211409625592297,0,321585507244653,0,104204041044402,0,102468812221319,0,16990696163607,0,00110608178768881,0,178875416634723,-0,00166085695117861,0,0320042304181461,0,202241476350367,0,176118197691176,-1,61476319958351,0,266612795468173,0,387082140625292,-0,128248025371067,0,473904457282952,0,343183933140071,-0,0112038385246552,0,165073678399564,-0,0116970381391357,-0,130557288265054,-0,0923425609689179,-0,179422099693117,-0,142344079182375,0,146578726072984,0,119692969166388,-1,5055807052632,0,454982775692344,0,3395333250255,-0,0370419435287274,0,264648007852633,0,70419290340216,-0,0630121151070295,-0,0642151028023391,-0,123361431421186,-0,136352499077077,0,0853699627930405,-0,109582608091741,-0,137385908708158,0,31428392912944,0,146413567544172,-1,59535999848938,0,43660957671012,0,149581977176985,0,0763934070153894,0,222197451897257,0,348138497625569,-0,0749976009859505,-0,063516550820697,0,0778469504885819,0,0433123453034252,-0,0747564936703988,-0,00966862209235285,0,0630509705560858,0,370807980895966,0,22362419635861,-1,65956730895206,0,486308448751853,0,297899695279801,0,0350372191049116,0,147904878578443,0,351780539285074,0,0593729777203506,0,124837091265735,-0,0690814386787537,0,106268261489352,-0,0152303012923202,-0,340517260202904,-0,133084284232343,0,186621356377084,0,178735410592295,-1,46205743774755,0,375530154855569,0,237030696832339,0,00636532766043094,0,31116887600025,0,411303873147628,-0,108704126140037,0,134201874530327,0,139318535031708,0,0859835055677107,-0,0592056268173742,-0,209989095931372,0,0309595215963863,0,312453787866579,0,363192670618869,-1,69782130878808,0,347260825673336,0,298405091449975,-0,162250381561741,0,254320514795068,0,484275570475322,-0,073942716388943,0,127298143368554,0,00536288637118739,0,141644746538357,0,0906126701956637,-0,398993670500796,-0,242966712561899,0,0216035899097757,0,119819401763998,-1,68068088261439,0,263104777707278,0,339781242299531,0,0675115909944524,0,428022886671185,0,532402687260742,-0,0729201524931652,0,135485466570499,0,0569036575302189,-0,0969605019232193,-0,00135321725527801,-0,110021771983391,-0,249818696166784,0,160549484387187,0,129240945044009,-1,83548859339573,0,407135941315203,0,10033774043097,0,0125480484644841,0,38052705760996,0,46041056971458,0,0774196793019178,-0,0322704342362739,-0,00513890225451042,0,103196553024807,-0,153532377545031,-0,0554519742633079,-0,22778523991321,0,277877782640214,0,259285973039523,-1,71992616920653,0,497627438485369,0,20979590090944,-0,0175017851869278,0,19990507754556,0,620227026783177,0,0842894321258013,0,116987967753933,-0,0125968428166605,0,0280182298343885,-0,00509890196876427,-0,210302309779695,-0,30202253213854,0,157661689047393,0,106875008204481,-1,73827625547071,0,513704663327393,0,190247157506766,-0,0748093034872435,0,348618107552093,0,317618674407375,0,0917068525964293,0,0675566287891344,-0,0337562592614802,0,0272687922130004,0,00215158132221974,-0,769764639579745,-0,623776720801412,-0,105066154099138,0,00917202368227206,-1,94115013050228,0,572996674721114,0,0555736409279387,-0,0807685760408425,0,321230382593296,0,425941139208943,-0,0812331960950788,2,94771689851312E-05,-0,168809943792667,-0,096486336953657,0,126309600102797,-0,558964835812765,-0,323376263758422,0,00757087550303867,-0,000352085363899846,-1,71692902957958,0,361369287812022,0,310194920486868,-0,114233268262958,0,277823157708937,0,659959659393609,-0,149361912115905,-0,153764012393059,0,131594552814653,-0,114245468264902,0,00674985664956548,-0,0464811774493944,0,0713264660870148,0,227688066386777,0,304996827437658,-1,44174777397238,0,311893451966903,0,299140854354558,-0,038142797242917,0,21848603389393,0,38031809631375,0,147109764428264,-0,138558584329365,-0,0466480207832455,-0,0590756393403524,-0,0492345245893565,-0,430255970261138,-0,398644858415872,0,140115637203375,0,155815169176787,-1,45488663360913,-0,136843508069714,-0,061415015495331,-0,114555568928034,-0,100953823280921,-0,105631644941219,-0,11843796225063,-0,0831970881989841,-0,0823779951178107,-0,138935965333127,-0,0527941906494583,-0,124999297497721,-0,10082851026184,-0,068374143291329,-0,086954251325737,-0,128092645685567,-0,130453642040348,-0,0826109644672333,-0,113476677180299,-0,0988484781289437,-0,0717452840745919,-0,124910682861563,-0,0664859175548412,-0,0948949788516669,-0,11083125299286,-0,0973503032241084,-0,128396090897038,-0,115789093317274,-0,108403628602604,-0,0537475160406745,-0,133598707960746,-0,131258542024196,-0,121613750029364,-0,106868067171603,-0,0571380072114936,-0,0891384491395703,-0,145681466534437,-0,161125808451568,-0,143259233420091,-0,131208560725161,-0,140495430203614,-0,104404482717266,-0,119092285191123,-0,125508879445192,-0,110298669980112,-0,0947073221503226,-0,13955126022654,-0,104393424246032,-0,118535649473287,-0,116247438978092,-0,0992121678964729,-0,124606730229153,-0,109286437189571,-0,0951709159934785,-0,0896913820387777,-0,0609024666141573,-0,144902189784823,-0,113698065132387,-0,132480377705502,-0,0846312674593146,-0,143705081934622,-0,14508664343082,-0,0825053817089936,-0,0581976159168163,-0,0715665273910203,0,317566229646349,-0,127364362734747,-0,0767166754668898,-0,128416782174688,-0,0867530294063055,-0,130523329441158,-0,122730790435958,-0,110806229606194,-0,120876719598643,-0,0875969091936018,-0,061581492964972,-0,13167542790419,-0,129453424677971,-0,0723055479969702,-0,0755000218460165,-0,0978955400641953,-0,110484111463018,-0,104613058223201,-0,0818397235980241,-0,110309843987639,-0,120507916573059,-0,0974901787115024,-0,127952888238978,-0,125194923312046,-0,0941713035470843,-0,0809621624033307,-0,0910111588394767,-0,0850865431438432,-0,130654195189603,-0,0885999834114808,-0,0596342608112339,-0,142654567653338,-0,146837940642445,-0,147900548025052,-0,099632735216967,-0,0791304994331043,-0,103608024916643,-0,108405350894334,-0,116600460437101,-0,143907006076285,-0,0841438665136187,-0,118819865429391,-0,0871287734940628,-0,106201879834542,-0,0982241688913391,-0,067606990249209,-0,136390431415588,-0,0935600724264138,-0,121083440209991,-0,138495806960952,-0,130409081282023,-0,0990306465825388,-0,116629785347894,-0,118486532929403,-0,120786575778835,-0,116420840129068,-0,137662983295118,-0,0683676466113316,-0,145467287593286,-0,142354799909133,-0,0804462348148148,-0,108734277106123,-0,142573065435096,-0,0660470339803799,-0,0685693075280533,0,262682820537834,-0,0839580750922108,-0,0998738126400718,-0,136750327692322,-0,0707397378145348,-0,0799999296629793,-0,0965275147144804,-0,0933430112938641,-0,0955635825360015,-0,111831840617569,-0,0957216954186371,-0,1546533736097,-0,109677439307836,-0,116764878170316,-0,0979363687263347,-0,152953619090652,-0,109442423295386,-0,117033248144103,-0,0723816990687976,-0,0985018245161743,-0,0922663116756809,-0,13320140878867,-0,132200829393737,-0,118692790345441,-0,112706208801716,-0,100477525817088,-0,134355052633924,-0,0805090350610982,-0,111162762113646,-0,0907231522186134,-0,0645429257044414,-0,123904816286903,-0,126765743644459,-0,106782449077264,-0,0763860051607608,-0,134059713064687,-0,0972182852880612,-0,122103390422604,-0,14044292575917,-0,131351689320382,-0,121816194630051,-0,10496838848201,-0,069701852532596,-0,128637138354065,-0,0917080725029102,-0,0385815942654702,-0,120080329136812,-0,128552803665359,-0,113860664754341,-0,151486231639078,-0,137811786995502,-0,0530126092398072,-0,0547780149540644,-0,0842341958661103,-0,0951237881820095,-0,104616496176783,-0,107191924364215,-0,125047848529323,-0,100310084831734,-0,0945411981250163,-0,146917155834002,-0,152414968081619,-0,113914535959733,-0,103732441586646,-0,0823646488389917,0,293916901932211,-0,136063702364361,-0,11438043534492,-0,0923785457271552,-0,129295553560452,-0,0912816890313849,-0,115615608621724,-0,0898842325512578,-0,114365917346793,-0,082255816329192,-0,11864285312199,-0,159149730640061,-0,137110426810009,-0,0842517102741973,-0,102150452907613,-0,159721911155052,-0,119834535954718,-0,0953858404072368,-0,0760443853346434,-0,111896707897067,-0,0801309127821106,-0,11374388516924,-0,073409273151491,-0,102114163771106,-0,0979077602090482,-0,0654642964712258,-0,106629529585222,-0,0868506725036738,-0,0968885594204468,-0,123561100818709,-0,0731819607744954,-0,0885707097607401,-0,087224897918605,-0,0917100136239147,-0,0685406559299251,-0,111889109349556,-0,133410766354268,-0,151907000942623,-0,111337695981169,-0,133964171643995,-0,109410764542864,-0,0734868792007978,-0,135266592843099,-0,136203083919678,-0,108573315828145,-0,0744609827924191,-0,146304986914195,-0,121060704554646,-0,120665421721703,-0,112558442142608,-0,0863557451622925,-0,0631857173749989,-0,0670717551041359,-0,0719246336056505,-0,0909628962751889,-0,0885139837538026,-0,120230766243201,-0,0971684767841477,-0,121697080381575,-0,105439077795534,-0,121569244623465,-0,140535028601368,-0,101572629486285,-0,12457862913144,-0,116654737058152,0,333858828083402,-0,0700718082746759,-0,0912211639443267,-0,0883103719035227,-0,134690414956513,-0,0774577547083753,-0,0967011331269351,-0,135868420370997,-0,10328851307692,-0,127912525304917,-0,102833809084754,-0,135758364642463,-0,0902811356513903,-0,112782384647946,-0,0956552000287155,-0,0951448193983809,-0,0999421626948484,-0,0669616313570187,-0,0887628619907008,-0,102522386826221,-0,088799416252649,-0,121545210792586,-0,0779459655397393,-0,133347052578197,-0,150762315604304,-0,0966324150907525,-0,14831322296268,-0,10210215356912,-0,114833194326022,-0,0583731439435911,-0,0749469799439992,-0,158726284690912,-0,139300267176151,-0,12578256977156,-0,0519637288627591,-0,124191102345694,-0,140914183585113,-0,137421797392079,-0,122817274878542,-0,12988637426121,-0,102325260140898,-0,0745309597882731,-0,0739961901487499,-0,119958052590366,-0,098435096938264,-0,0685567601856461,-0,095578820521996,-0,137010559596202,-0,0894151720794089,-0,131625173322382,-0,0973640442216704,-0,105378560269225,-0,0737767349518362,-0,118951425903022,-0,0700325595239792,-0,0879414123128757,-0,100620814150154,-0,0946042977912347,-0,149398394000227,-0,13239968212881,-0,120000417022196,-0,138389899779063,-0,100064653717526,-0,120929890918783,-0,0782111773959452,0,338495381825041,-0,11275018772134,-0,0863076709658955,-0,103440219423879,-0,0816165858972401,-0,114904444718823,-0,0934547783967146,-0,100907854970662,-0,0801487253734609,-0,1108532011163,-0,0752799548130915,-0,177118704818843,-0,143350932259103,-0,108488879404496,-0,0721211151050033,-0,129116926422887,-0,134179276801988,-0,102001820197992,-0,0871316025125951,-0,101265728223038,-0,0736441593049006,-0,139342333861817,-0,100456883008765,-0,0830488414247291,-0,132532269588184,-0,0605938269392745,-0,136026150238115,-0,103471502398532,-0,106884607210416,-0,0703844303783805,-0,119828747025629,-0,156595907440792,-0,102033415957518,-0,148897118211379,-0,050378973863765,-0,103731309235751,-0,103960564667781,-0,166030761746459,-0,085181765765927,-0,103696594193543,-0,0930090069998554,-0,0907446208951335,-0,112429359828057,-0,121886584743416,-0,106888037763175,-0,106719494313047,-0,135675682253243,-0,0944552606650217,-0,0937859075906405,-0,108531205247354,-0,0936316308884095,-0,0863226784891526,-0,0954031243975344,-0,117076095409018,-0,110364196859322,-0,0634764918336755,-0,103717966078671,-0,144812154408202,-0,146180807456175,-0,0827146315552531,-0,150019957984854,-0,164585720965397,-0,084773950539756,-0,0965847328828554,-0,0633220998880827,0,287198027218277,-0,126427013016926,-0,0460165393734553,-0,0797960620622525,-0,0805117213085613,-0,0788047303070066,-0,152685254596667,-0,0856822548218403,-0,090401106399636,-0,126486061009874,-0,0927141492921028,-0,121861756571211,-0,147422477141741,-0,0918710372090561,-0,065799284712783,-0,0844012665997571,-0,128322388417237,-0,059893692845446,-0,11871745263513,-0,114183141977254,-0,137849560257759,-0,0922476628324809,-0,0981059470950434,-0,127748952414863,-0,0869378731235375,-0,120619348257358,-0,124791147388486,-0,135251611382465,-0,0902817968326547,-0,113461770718918,-0,0745265367892742,-0,121448621230458,-0,152304138878901,-0,110381988159633,-0,0879992038705042,-0,128682379951757,-0,111913308820884,-0,147162854126893,-0,0864459160980564,-0,116329092033161,-0,0851032225224074,-0,134172108215349,-0,130717756261713,-0,0907423250259997,-0,0771772240082645,-0,08846949962897,-0,14378756413845,-0,122708985224782,-0,0726987184069272,-0,14346590813851,-0,0816605897220235,-0,100580222752653,-0,110746798478331,-0,119420885856649,-0,0792616523878669,-0,111706813375319,-0,11968543259406,-0,134873683392692,-0,0876411848861069,-0,0801972779435623,-0,0849611235964109,-0,155267101615878,-0,133023727745967,-0,121595970460764,-0,0630570820993893,0,304580953222747,-0,0933784093424937,-0,106312961662853,-0,132947389159097,-0,0664482511638995,-0,111289250843269,-0,0895847600871791,-0,133219290932541,-0,0819720215449268,-0,132174694078899,-0,119332896199942,-0,115434968732098,-0,142544412456046,-0,0882898772843061,-0,112002907281676,-0,0855822472237621,-0,127157880347433,-0,0659299738881879,-0,102876712458399,-0,141363201240898,-0,0685471531097429,-0,130045499668418,-0,12996685821093,-0,122558778481579,-0,116166135960877,-0,115557837327609,-0,119600112669238,-0,0617104166275646,-0,121383308081725,-0,0803452587211112,-0,115127992921145,-0,0824459528642031,-0,134027915443689,-0,102107467784927,-0,0546524640692158,-0,130097738117739,-0,0768338877616705,-0,135715807479895,-0,089511012958377,-0,145779702037919,-0,135998461918876,-0,0713867778276051,-0,0708698926642917,-0,149943377611991,-0,127851466027718,-0,0909785272459033,-0,133639164994792,-0,114095072713007,-0,071236064992809,-0,117566552239526,-0,122073189416494,-0,104742310668392,-0,0821692291863682,-0,0704799064632407,-0,122277723928878,-0,09987503061907,-0,127341558391472,-0,080666058588337,-0,143979412361923,-0,120037014922472,-0,0969887810682735,-0,132936369883328,-0,0781823566824693,-0,0629001724154355,-0,113401467958914,0,278403025460016,-0,0787334785100617,-0,108818014127782,-0,105319312807582,-0,102819267695797,-0,0874867891299219,-0,151590695154247,-0,137317944260728,-0,111224395513433,-0,071344547873514,-0,0564373629052083,-0,0961939004634119,-0,14713826187055,-0,0616994583025844,-0,0874119452633618,-0,140810323997525,-0,114397095096382,-0,0805590886224463,-0,125174422731717,-0,124295794800601,-0,0852734601833796,-0,151193685197682,-0,0928918638728625,-0,118252058947763,-0,137150108539864,-0,061059899702896,-0,109885455595285,-0,0795467434536156,-0,121842559211555,-0,0693186675981938,-0,0645404687938129,-0,123771103917659,-0,0992940292507544,-0,132625922262546,-0,0932461627338594,-0,102135519765344,-0,12701360348505,-0,162835796291067,-0,14426112777848,-0,140948099713041,-0,129206668252234,-0,0966879734900733,-0,108383186029085,-0,102894408805556,-0,124599456754208,-0,0566999981147703,-0,127569436733913,-0,115874292338106,-0,113573824026763,-0,103687427519729,-0,137412613429775,-0,0565732356330681,-0,0871998750604988,-0,101215508737276,-0,101472513748018,-0,0739442294836306,-0,106616167938286,-0,0848314837739624,-0,0880767879453382,-0,0758344999371887,-0,0824953473133274,-0,119197845634163,-0,149553159581503,-0,120356058754726,-0,106232549916762,0,328989609096181,-0,122569171410022,-0,0702393852302197,-0,0796465165769463,-0,100801773251372,-0,0993625312932493,-0,151219495635634,-0,0843579998469082,-0,0930789594910631,-0,14623674913538,-0,0892542583575759,-0,149747241270988,-0,0886586156673985,-0,0441241275129162,-0,105897119759451,-0,103006623900296,-0,127121426716517,-0,06570644125775,-0,0812589432640136,-0,0864381857696356,-0,0913765611615366,-0,137359910817746,-0,126254605575133,-0,130749785911946,-0,126063915723089,-0,0849663349004062,-0,135155055967409,-0,0686594170065749,-0,143600315042174,-0,113740461469649,-0,0590192152075256,-0,159338605251739,-0,127257019630967,-0,133166292765758,-0,112474990758389,-0,0866856700145373,-0,140818645205028,-0,0985603347576827,-0,0928311531664442,-0,136287829924208,-0,112732969292335,-0,0691277188651465,-0,134145561544299,-0,0983487836432093,-0,124213515891982,-0,0927998610679468,-0,141549106861084,-0,13888755728658,-0,0599115689211045,-0,126315838036772,-0,0867183007761617,-0,079945586055103,-0,117907851132296,-0,138407024332659,-0,0846168131433455,-0,0662927628925016,-0,101110395101343,-0,0915658075441733,-0,114415186216415,-0,121009345839276,-0,108103596343192,-0,153696539816146,-0,140286585676083,-0,097247862996123,-0,0850311459569242,0,297869008826813,-0,116817784392004,-0,104668607326963,-0,114455717361528,-0,0849198266058398,-0,0841546418254354,-0,0934908426584094,-0,0889514375287258,-0,118453357987215,-0,0975800112496327,-0,102081315932787,-0,103994603039044,-0,152398258728356,-0,119508180605658,-0,107200328105958,-0,14280232348202,-0,0755503488038872,-0,124589711735126,-0,117503447990312,-0,145241141052362,-0,105355743883077,-0,125618262810845,-0,0677973787389284,-0,0862840114870699,-0,11970743369648,-0,0931171186250595,-0,143205926506267,-0,129747841890079,-0,0919007478028559,-0,0689653189726101,-0,110703111296534,-0,14926570380645,-0,106801178989972,-0,152898698213384,-0,0689850000448665,-0,0666743630641558,-0,114947679978228,-0,148816846703224,-0,084107607003712,-0,0852519520385899,-0,125006174591184,-0,10272523202857,-0,0785515207790279,-0,120458104168056,-0,0758318346375612,-0,0433962729668154,-0,088896748658824,-0,0652265523700431,-0,122054283469455,-0,123004725522867,-0,151109926053276,-0,0589812282007973,-0,101377313946827,-0,123521211801564,-0,0990961315967108,-0,123442414620148,-0,131851088402734,-0,135504425335832,-0,116334863043226,-0,143044993373843,-0,078655027809346,-0,156433168939366,-0,0923563368468315,-0,0725728364809568,-0,0677595568570742,0,273781431806213,-0,136040354920065,-0,107150247792055,-0,0961698789028654,-0,104374345990013,-0,135772511094605,-0,157490724926164,-0,138540608384819,-0,10457009502517,-0,0900192290677182,-0,123944028542994,-0,0989316551677806,-0,143282301779688,-0,100397868161944,-0,0579634268700684,-0,0937263750263731,-0,0717733965886219,-0,0894145109791673,-0,113695061058474,-0,118024076007006,-0,0719994439854438,-0,0996074050203327,-0,0801520572336207,-0,0655155619863925,-0,124966936657781,-0,110121862429561,-0,0870709655989929,-0,0844324704171597,-0,140817157952796,-0,12309627704204,-0,127167877965156,-0,146931791824562,-0,0787576317644819,-0,100062294786463,-0,0624787081674416,-0,0803745682920385,-0,130915445714573,-0,163885826353677,-0,11349721367028,-0,106673379279745,-0,120070846379606,-0,117248112957537,-0,136851600171028,-0,150497477974356,-0,0880182960022004,-0,0864218187298686,-0,130321924613972,-0,0845136770630392,-0,0992064527251565,-0,109798533492266,-0,140674668113436,-0,126406428065588,-0,0546460338524599,-0,110829227555177,-0,0975051406587335,-0,0901197097280543,-0,0719454848358989,-0,113454185027616,-0,0832314794896923,-0,113420349693306,-0,119251637026696,-0,145309077515624,-0,083256302069384,-0,046487198719529,-0,125067180218468,0,317383768326143,-0,110353431396161,-0,0694297011281386,-0,109620207169621,-0,112331218562427,-0,115052124844098,-0,147989802098829,-0,0866530991470725,-0,0768311091217602,-0,134364865403683,-0,115094684836771,-0,148918671035698,-0,143615490426978,-0,0534881425550813,-0,10173133132843,-0,0893742878451916,-0,139322695471596,-0,0565962187555136,-0,0999769325710095,-0,123514344021031,-0,0899086589545777,-0,143105668305181,-0,111921301704219,-0,0748826157329448,-0,124795713127548,-0,0594125795026691,-0,0761680414725995,-0,0913792538977219,-0,138197705825432,-0,0986905049181627,-0,124516369731438,-0,132272709264625,-0,103463786672992,-0,136056459244084,-0,0865683113581718,-0,133065091003009,-0,0793392287416496,-0,11366249747155,-0,125813274962154,-0,099534738960116,-0,126567835857641,-0,125626435186007,-0,102087927011791,-0,112578801268817,-0,0696092695693516,-0,0558629446485505,-0,0916098402012926,-0,0678221935116974,-0,109778228623066,-0,136959647845295,-0,0990207296692883,-0,106330041754156,-0,108400080316906,-0,123573216594642,-0,101522085362109,-0,0643856074339723,-0,0896606114052652,-0,0814406403551391,-0,144748454348685,-0,14630540306604,-0,129589800956559,-0,119647607390628,-0,107635792331581,-0,0586736685848699,-0,119390958738631,0,341379746188989,-0,077333936238178,-0,117579850156415,-0,0780313746885613,-0,102115746363178,-0,0811063083039112,-0,148187397618885,-0,104483062230076,-0,0827962686708758,-0,106284733123889,-0,0890609578833912,-0,13033835988036,-0,155142873468579,-0,0539683302884132,-0,0654979548753569,-0,109427875177355,-0,113955849605352,-0,105096506901489,-0,0758245021804006,-0,128387983030503,-0,111857829408771,-0,137838235760413,-0,0768638701441923,-0,102279166445399,-0,116074380701327,-0,0943427953370506,-0,0989368430063036,-0,0701009385062613,-0,115589275781628,-0,120247445727855,-0,087539634061324,-0,147142229172243,-0,151442219343245,-0,0891087736006717,-0,052169558229347,-0,0921095095350987,-0,145660560053201,-0,129825162715279,-0,111644170255325,-0,101654492011344,-0,0802698909955462,-0,133237059667056,-0,107549469785256,-0,136867088773537,-0,0863584566349684,-0,0969617891116101,-0,149481141428812,-0,122430103646141,-0,0897710875592564,-0,103862866102244,-0,112674579151637,-0,125186801923205,-0,0848051095977758,-0,132060350703445,-0,0660241414138873,-0,082912090190348,-0,0859091519639189,-0,129346590361261,-0,149678684507522,-0,114213183750445,-0,0824608870004592,-0,0948005149683271,-0,139793143156156,-0,0967960580099255,-0,0815197013245514,0,319949243932702,-0,132564131912306,-0,121429684106576,-0,110626470408242,-0,0951836207495807,-0,0753598711438031,-0,101092601203587,-0,108026030167048,-0,0867062601287153,-0,111502075201686,-0,0593986797482589,-0,120178630755167,-0,115345528393626,-0,0558705373208339,-0,0942423535979174,-0,0941143072376879,-0,080585724375146,-0,077256334888821,-0,0980518801430385,-0,107532744962999,-0,137783352211843,-0,125380829100019,-0,0820098773707889,-0,127062056785022,-0,0923657130768929,-0,0944182729377912,-0,0953766563263793,-0,0801882268167032,-0,11436432067532,-0,100483867113966,-0,0704880220053288,-0,156655485574724,-0,143107975103304,-0,140305919640108,-0,0608083650342336,-0,113341617197105,-0,1120717843624,-0,111945693106293,-0,0993223442161666,-0,146208774081363,-0,154070893073786,-0,14013902072135,-0,137018882656854,-0,160700781921533,-0,114106434674524,-0,0607926024532687,-0,133813937433206,-0,0785730231216199,-0,0716998023331338,-0,0981617440562479,-0,096471112923073,-0,122873590197105,-0,0747876350814329,-0,0715411974748265,-0,107001659774443,-0,0691695115285052,-0,0827121551725697,-0,145898933199952,-0,123906725042448,-0,117500021522232,-0,104614951453352,-0,164937076021847,-0,130448903968877,-0,122831000845413,-0,104983771602717,0,339534747240046,-0,141079460308028,-0,0957350521458526,-0,101983905330909,-0,127805878609059,-0,113354065757098,-0,100999677064877,-0,0787107767267717,-0,095696147616072,-0,137511406598442,-0,12374919999576,-0,10170823388261,-0,139165306806037,-0,0657079614200105,-0,0934775292007146,-0,129504068375381,-0,0852039379253779,-0,107234802326153,-0,147374446120925,-0,112135165131154,-0,0808757378900039,-0,114574395732417,-0,0716087327474643,-0,0700358891528259,-0,140003829730359,-0,11294608713123,-0,141606092947253,-0,135207986439776,-0,115673001801445,-0,0586848018991175,-0,0779248471475591,-0,104664035801559,-0,135204578487506,-0,101946893341625,-0,0745029808069041,-0,114192529343011,-0,123027004366744,-0,104809092681704,-0,089834833093497,-0,0871616071397179,-0,0864724343725278,-0,0874450238197253,-0,140058935265409,-0,133473825432528,-0,0762905360526541,-0,0475356663463153,-0,114901013274241,-0,112582540022467,-0,114105262242835,-0,102673494548847,-0,0897560350464726,-0,0609066295259558,-0,0982804260618946,-0,0690971846592239,-0,11709136423595,-0,0569118826470988,-0,148251298019662,-0,149164680781696,-0,114016817804115,-0,141188714972136,-0,101068325092392,-0,162915279817497,-0,140242225739809,-0,064829982840963,-0,107606174244059,0,344439520169283,-0,0723176968163382,-0,0511854609003542,-0,0968860425510122,-0,131712955655847,-0,0782385914541027,-0,101139197380408,-0,134483537924173,-0,0952569811296107,-0,101610422404627,-0,0820896842102184,-0,131244499307164,-0,0969967551028283,-0,0685751184651781,-0,0750964375406989,-0,146354111506509,-0,134129738099375,-0,0652796288195943,-0,149222538039142,-0,10480210842445,-0,140165701853373,-0,136951141309191,-0,0998000358389951,-0,0661913575385225,-0,105655165387108,-0,0984764183347409,-0,101905469382355,-0,118584692528583,-0,122710227383074,-0,109540074545351,-0,0857462871367196,-0,103627622251918,-0,132100477613691,-0,115259918061123,-0,0778009798736255,-0,084403328226693,-0,132455703253245,-0,113613971774562,-0,0968375862133817,-0,0968333120466418,-0,153849296110114,-0,090492739715229,-0,119377084167314,-0,140907925934665,-0,100151226461373,-0,06230055031636,-0,0947444698771582,-0,109555549213115,-0,0606469887916352,-0,123017322635188,-0,102354045695867,-0,11280473850024,-0,0875164513440864,-0,135859039453802,-0,0772010369733708,-0,122849155071418,-0,105712523911844,-0,119622786656582,-0,158930351203366,-0,0891048044578927,-0,0957757568696932,-0,157087761397948,-0,113839713622668,-0,0946133925437272,-0,0903332180149941,0,338451890981093,-0,133694033622662,-0,0918807796293987,-0,104387757589827,-0,0992144100139296,-0,119218992529792,-0,157696717289355,-0,0857998146056222,-0,099774229953472,-0,110518422464759,-0,0658173070810772,-0,131111946902542,-0,156895033881761,-0,0678823324112931,-0,116628439296599,-0,100507890378486,-0,0991271698063671,-0,0543162764034856,-0,112312927640904,-0,0928292133285375,-0,0736761316324166,-0,114605141168154,-0,123883641569664,-0,113944713925837,-0,148721816396019,-0,0739165209301538,-0,136269288308381,-0,132609207868545,-0,110629479102808,-0,0735221530625992,-0,0839267525292041,-0,148306399713994,-0,136822713099048,-0,108169230719661,-0,0534479092599367,-0,0829263645140285,-0,113859540819669,-0,13835344387688,-0,0816920651634308,-0,107541202057137,-0,150019559140086,-0,0697151829567801,-0,0726585769792792,-0,102336892905145,-0,122497165008038,-0,0699075675067547,-0,0959033978068545,-0,107627342190552,-0,110778706610362,-0,0994401111879581,-0,102201661506215,-0,11686289146491,-0,0541399505586439,-0,135079592813054,-0,120298146211578,-0,124129118493184,-0,147835869249046,-0,10832965222767,-0,112358474396753,-0,149148753892778,-0,153110048047477,-0,125214925844078,-0,102615381344483,-0,0646416773011431,-0,0755421132972292,0,323976508048317,-0,0859664256885334,-0,0686940629948839,-0,128881762034934,-0,0615779033337992,-0,113730746654544,-0,110439535508297,-0,0658819824484068,-0,101031055047837,-0,0956982010618027,-0,0626866851617679,-0,117222347444776,-0,157704523464718,-0,0818503839041306,-0,0579885188420899,-0,127701449428204,-0,0737816889533572,-0,0776802378535457,-0,112730251643522,-0,0950574323653452,-0,0700186625961509,-0,141568790486567,-0,107690838822643,-0,125268679608956,-0,113918594137706,-0,0823239576229895,-0,114283397073296,-0,0909672681963025,-0,136600933034434,-0,104920993275473,-0,126453606814264,-0,148435447953535,-0,0822934141691493,-0,115070552072446,-0,113072915169576,-0,0682771807439511,-0,111240844401837,-0,126153269364163,-0,124155887599141,-0,136884029529045,-0,143452919634543,-0,101740678287248,-0,0740041914929123,-0,108678133131797,-0,107828368255009,-0,0702911528850883,-0,13283953936555,-0,113007710259618,-0,116639188513918,-0,122539583353881,-0,137986928451513,-0,0841010756761622,-0,108751355130733,-0,1017574114804,-0,123016074067099,-0,0658489388048195,-0,121680970334368,-0,131338712718793,-0,123996394345777,-0,114560147219372,-0,0985580833061909,-0,123873822971173,-0,126041442953466,-0,115621792910423,-0,0949764732387736,0,278978949813652,-0,0925335294518394,-0,066654654575866,-0,132690228373537,-0,104575001420031,-0,0886025913686626,-0,0987540453838996,-0,130054503791784,-0,0873129267727326,-0,112709331876212,-0,0728026935649498,-0,108429980500926,-0,149814616223773,-0,0558387241546631,-0,0622143442023197,-0,0826685663067972,-0,0657349247038403,-0,0766318434129917,-0,133937129541521,-0,135986461403517,-0,0853296861668093,-0,118868939694423,-0,068891988775928,-0,117762734097355,-0,135626102420205,-0,0624036901192736,-0,134647604604662,-0,108972565432114,-0,139405275513654,-0,101509683940773,-0,111662245023879,-0,0979135240556938,-0,135178379940779,-0,144754867584621,-0,0520505847445818,-0,108564215590157,-0,138431029907317,-0,120798251547255,-0,121000726396306,-0,108229004751059,-0,116656945063532,-0,125139247034795,-0,137847980354582,-0,0879000606251756,-0,101571031366971,-0,0608851501621984,-0,118623910492314,-0,0803830775369253,-0,126005230528988,-0,0817801880696775,-0,151600084901513,-0,109741913031827,-0,114386508745002,-0,0763359997599654,-0,114489642099628,-0,0719314684150596,-0,0884974087182147,-0,0896195649391383,-0,152050054317595,-0,113082819401226,-0,129405853891348,-0,131431745851351,-0,142120604296207,-0,0600549431236065,-0,121541944270825,0,321380773389822,-0,0778243361795685,-0,0814261740984624,-0,0907933686118257,-0,115376188366009,-0,128723868756511,-0,134977054947228,-0,0793744421982657,-0,111679372897372,-0,139829359337473,-0,0913442825321659,-0,156197318815369,-0,131939074406083,-0,0832999403492128,-0,0943710010202516,-0,119506589931147,-0,0626034409912781,-0,0872953682947754,-0,13516140901773,-0,118380638212856,-0,108677002757089,-0,159524321545592,-0,129679115811652,-0,114881809659627,-0,0843320798660513,-0,055065563229142,-0,131773242756488,-0,0926432275911077,-0,123928495187102,-0,12175749222076,-0,0969061846014452,-0,120120712017429,-0,112988420258183,-0,0899318655065976,-0,0728598033267095,-0,0661021817647644,-0,0998878933345094,-0,118184439061244,-0,124867070183177,-0,110115090863125,-0,144618753082447,-0,100067745164727,-0,116851653880264,-0,134395873488604,-0,0927940301353745,-0,0436502442127627,-0,142564669768638,-0,141776037925207,-0,0815935819082712,-0,122964269429422,-0,0826798062928496,-0,116222575602346,-0,0508419689569432,-0,0941082061893881,-0,123147568500442,-0,0948017145062202,-0,126808542577171,-0,128270694792086,-0,0767088509164402,-0,134047210208443,-0,103083334365613,-0,13919416522165,-0,14310643288264,-0,0647253532444724,-0,0976086127506814,0,269867125394511,-0,075643149547556,-0,110664429479133,-0,103818677111895,-0,0708985563222335,-0,109837810104284,-0,135851167894427,-0,0716104670063507,-0,0763006358935293,-0,142908575657311,-0,0889546334997774,-0,148986115239683,-0,127230613429378,-0,0755398661681071,-0,0849709602022815,-0,15339766976178,-0,114854018293444,-0,0677354412222839,-0,0924931983710721,-0,14067655072583,-0,0980787594531752,-0,101707358808465,-0,127685135673428,-0,111374699154778,-0,0836281905427216,-0,0591232929877663,-0,0938386304855796,-0,0968729245697194,-0,149717230817009,-0,120310007348331,-0,0858487401957636,-0,0892832333568012,-0,103186829264936,-0,138639448874144,-0,0586854032651442,-0,0749573051438499,-0,0923892918475743,-0,140487691233054,-0,085395328774531,-0,0885363929788122,-0,128123587937936,-0,111897046379716,-0,0930286685368299,-0,109530500908506,-0,141910568867079,-0,094935631976607,-0,113699112776345,-0,126125135222354,-0,085965218038798,-0,114971465752428,-0,140630377614687,-0,0997446026651656,-0,0674649912929257,-0,117370953385894,-0,0994954214796731,-0,105332028686296,-0,098572753039535,-0,114297592715658,-0,121628465167978,-0,140091123242153,-0,153571867564353,-0,1760377020898,-0,144795397989915,-0,0592655980562152,-0,0629409662900632,0,323777227543664,-0,114944984659932,-0,0958279526707566,-0,13050332976963,-0,131866826929813,-0,0861843197631212,-0,151366654520159,-0,0936626555147093,-0,0969700735967436,-0,122101978484218,-0,120699259175807,-0,120852237130432,-0,128229496052606,-0,0785109971806009,-0,116802165842157,-0,132768616641558,-0,110063924992961,-0,0673459712158955,-0,131232146694468,-0,10967767910999,-0,0697148947103191,-0,0956940560408322,-0,0675899314981577,-0,0775642293990435,-0,106539019058985,-0,0607335507426649,-0,146699350960026,-0,135238739409861,-0,115982771147858,-0,106454551698158,-0,112172526488778,-0,0932010985210196,-0,110608656394268,-0,0899120443871204,-0,0854763650301165,-0,0932527574401082,-0,0890138911072361,-0,163083313530854,-0,0816643205458405,-0,115611171229947,-0,13381594277345,-0,119141305411864,-0,12443740913498,-0,139179650823325,-0,10009753115489,-0,0732184406543596,-0,111121663724629,-0,0925790061096105,-0,0775704330354267,-0,135939479442749,-0,11603318171792,-0,0544474248494695,-0,0527015500131702,-0,101448024455516,-0,111277317541581,-0,0928404204434921,-0,147860468798363,-0,0951981721913526,-0,154054200261523,-0,0906034903093498,-0,0970878909278776,-0,142422838659069,-0,0755719082118879,-0,0799963315145893,-0,0861645271969603,0,327676409316613,-0,094355799731588,-0,0819555276453576,-0,11376203034392,-0,0614467927550515,-0,0853661480801566,-0,121085424743529,-0,136973822734487,-0,0862269624445586,-0,120507029251121,-0,110166020571521,-0,162198883879999,-0,133582296882819,-0,107294223017373,-0,119666917659502,-0,0945046810066592,-0,0646982896071584,-0,0728475647811735,-0,125041789086542,-0,131656885430035,-0,0750106776840279,-0,103895483733675,-0,120790354140824,-0,1112409353185,-0,0823954615435761,-0,0987403472985017,-0,147744506472547,-0,0814103695218882,-0,0812832910361574,-0,0507064047924552,-0,0796924934526203,-0,153814822830872,-0,130011694986397,-0,156436457407227,-0,0418947250879478,-0,0887972413746636,-0,137548900220962,-0,11775873628153,-0,0931558434323011,-0,153294373756305,-0,0951467185565746,-0,105830493733336,-0,106466464780316,-0,158714320862423,-0,0836317155529939,-0,0602663150655958,-0,156470702489377,-0,0981141844212571,-0,103665120345631,-0,152936727278717,-0,129927682835024,-0,0716995960678165,-0,0766139696155131,-0,0865563642220518,-0,0876727337364066,-0,0525547436552842,-0,100927658488989,-0,121843239419178,-0,134209916719994,-0,119627118221805,-0,087677176420137,-0,17599358881788,-0,123328215417929,-0,061438553568014,-0,108332999160538,0,329793302330391,-0,0930679990712573,-0,0737435826549173,-0,103741286024878,-0,119054141892257,-0,13648795833801,-0,152821158092224,-0,0721750487996087,-0,130086644785341,-0,13406282681777,-0,11894108185822,-0,153108688056327,-0,147658513491962,-0,0462100151874482,-0,0821846604934081,-0,0926380109232966,-0,13628177353574,-0,0751815527680906,-0,074701933274646,-0,143516568094484,-0,106054798947011,-0,140827734674321,-0,118042415885682,-0,100230166036193,-0,137522464070587,-0,12173016934965,-0,134536834817211,-0,0725028089319733,-0,113583997280563,-0,0822581816520514,-0,0945369409896374,-0,093313735557304,-0,116203203819036,-0,0974420609196723,-0,111068741224798,-0,115347785861273,-0,102220959555351,-0,120177737567709,-0,10944740082471,-0,130424563829068,-0,0840591757699528,-0,0644556532234353,-0,12029026322823,-0,123688314970409,-0,112190121990526,-0,0489774977065864,-0,118706215058431,-0,110468760270196,-0,0959623185202602,-0,114790276802746,-0,105903772535293,-0,0791720998135676,-0,0815641123450113,-0,0771751622143177,-0,0638963274613309,-0,0657135025130247,-0,0768498877673407,-0,102493602145797,-0,147068222105667,-0,0871296015353428,-0,114109453827995,-0,115205508039697,-0,133289372932882,-0,0900031012541331,-0,127180868582827,0,306777864859914,-0,102812810235642,-0,089588696447213,-0,0970702256141337,-0,0917675442511727,-0,0966998545222079,-0,0904160472361525,-0,125404344513964,-0,131918682891038,-0,094356057129631,-0,0910380743101216,-0,161813108174223,-0,0858352463885087,-0,0889180521341615,-0,0943015411592695,-0,134500935538136,-0,111532593270318,-0,077564050057956,-0,132687762879671,-0,127248702554843,-0,117997524319881,-0,133565280007838,-0,138949281694258,-0,0802815446229403,-0,101532925157506,-0,0607152536045556,-0,109102034868436,-0,133409010474475,-0,104362547255854,-0,0626541487571448,-0,0646645071254661,-0,119708597305748,-0,095056105467642,-0,126168194281926,-0,0559178218066738,-0,10518665558863,-0,106387025706721,-0,0997549027201683,-0,142956848771024,-0,136745913238691,-0,117888799623877,-0,134600042874107,-0,127396474763264,-0,0977260006709878,-0,127326082564853,-0,0777241152297507,-0,123273518400867,-0,0759537349191875,-0,0873728382734345,-0,115862001374127,-0,142721572027657,-0,0672460942091973,-0,0680518583062743,-0,116366448335956,-0,0774201009172934,-0,0624158267395161,-0,0976312053325175,-0,0867242580859562,-0,144660056457269,-0,146090847566171,-0,12991500531079,-0,149507249132115,-0,121080146479959,-0,0755058386410448,-0,0974969153644482,0,317503244409499,-0,0864814616531118,-0,0547805838161359,-0,13520584282882,-0,0870885235345283,-0,145359738128656,-0,0996051799594466,-0,0877937305409384,-0,132464927349257,-0,0905715442561306,-0,0690147070496549,-0,136155260361874,-0,110857584289082,-0,10569005534896,-0,124460687523661,-0,15994158590175,-0,084500757726537,-0,0820735961034812,-0,0984773512917575,-0,117215318942633,-0,10680535078124,-0,0979848721731612,-0,104101406758636,-0,126517919720312,-0,0813815183388004,-0,0727850685547699,-0,129824293783975,-0,0836749318347244,-0,14961525451536,-0,0591361863849008,-0,115552559270274,-0,144362230541051,-0,149884873010479,-0,136391152249842,-0,0556956378571921,-0,0831807097369025,-0,122020327452648,-0,151808968494088,-0,119851278591543,-0,124186526514472,-0,110500959963881,-0,117479886445145,-0,122081575471828,-0,0975206652360759,-0,126687616843189,-0,0485699988671376,-0,0969031863625375,-0,0785597881166907,-0,112356147558309,-0,113405889558828,-0,142199539887148,-0,12049024811735,-0,0901505833101601,-0,0920952895709508,-0,0724683689411474,-0,0928891310790897,-0,134073911057539,-0,0785460717998232,-0,102206374803541,-0,0956966993171275,-0,134758058622976,-0,104995435580096,-0,119696618669524,-0,100077943090021,-0,131013088013283,0,306243308938499,-0,126382462929893,-0,0653490768912685,-0,0875277394199434,-0,110007428901487,-0,0746616908567306,-0,0860183723145034,-0,0939217439034111,-0,126866346163808,-0,0973938250583962,-0,118863357217417,-0,141416717285913,-0,133337404547067,-0,104421444310275,-0,0913126008985362,-0,0835456367165997,-0,137931636185248,-0,121227429211028,-0,115522861969675,-0,0936668512485911,-0,0781002414794704,-0,132498355287241,-0,117722197492777,-0,0736722559849655,-0,0780859960427183,-0,055087816235319,-0,095803421961089,-0,104803176319212,-0,11944456130672,-0,122813826418469,-0,0905967792041261,-0,142973604781904,-0,0984156687125115,-0,110676313478538,-0,0698863487254588,-0,0859533124123124,-0,111044830620677,-0,10059711875017,-0,145314635034667,-0,118486064314225,-0,107950597259028,-0,0772382419443303,-0,120156923415419,-0,153298378212352,-0,135588279485922,-0,0621477118154885,-0,156172530143624,-0,130712227695631,-0,124010235288171,-0,101383364922043,-0,153856784395787,-0,0841405252315235,-0,0643068634174442,-0,135509013690441,-0,0897569355387341,-0,0830340372812962,-0,142937448944106,-0,114882123297414,-0,136176649831774,-0,0969626534758628,-0,0813734380259671,-0,129828602230089,-0,12646567685832,-0,0635269220389587,-0,0565171985143032,0,294714852069462,-0,127085768139058,-0,105449010846942,-0,100422078499003,-0,111834305625771,-0,134092156719772,-0,115427739358665,-0,136257578416094,-0,0970926569700943,-0,118387295482712,-0,0981711990309581,-0,101637267418788,-0,153881887139489,-0,0560989860544365,-0,0593426219190177,-0,123592324896743,-0,100275025718073,-0,0633667505729821,-0,132337873663316,-0,0900431766324621,-0,0729014375097786,-0,11610685866712,-0,0967862838643017,-0,0903998588724156,-0,0861113678490524,-0,0844334202559431,-0,124889893640769,-0,108379923630281,-0,105224174085676,-0,105870492837485,-0,129531227277613,-0,118127980882073,-0,125054762421219,-0,0922669242825963,-0,0762460242887701,-0,116133755916955,-0,128669493183494,-0,118279154639491,-0,137045144153561,-0,145359031465679,-0,118044387246665,-0,13370832579479,-0,135372382679649,-0,145922005844669,-0,0804789082746909,-0,0544208225306767,-0,107843434190028,-0,067076984085302,-0,1147372571743,-0,102550645109308,-0,0990416441581551,-0,109747586533408,-0,0700487621492337,-0,118156972653983,-0,0885742135562166,-0,119715672297473,-0,112288836220011,-0,0937073189265331,-0,145714077701697,-0,0877747317957755,-0,1232533629593,-0,106072207973633,-0,0978716069716851,-0,105960886486316,-0,114364817313448,0,295483958019945,-0,137856379079395,-0,093902694634201,-0,073274913823775,-0,107847978183619,-0,0934323911352322,-0,121469589826931,-0,0942405451971357,-0,0744695940048397,-0,123665743927802,-0,0835989372324193,-0,129719835579292,-0,107411030301968,-0,110513136108712,-0,0702440272408518,-0,141265876948456,-0,0787117646448649,-0,0810752390114317,-0,0906934966162167,-0,139659043177555,-0,0726192204871806,-0,0983002180924186,-0,0948629608666606,-0,0850330655702335,-0,119900348606451,-0,0789691803723711,-0,14590907647442,-0,0797366612785081,-0,0757280050838253,-0,0917715615368762,-0,11446309890391,-0,133671375791076,-0,0951687039820157,-0,104705048212856,-0,0976664019152746,-0,126844080236109,-0,140024358934778,-0,150208055074779,-0,124422294015192,-0,137713383899883,-0,109152816401162,-0,0973416256448849,-0,0730977206904769,-0,147774941823242,-0,131821369281581,-0,0911320599594484,-0,0902607578035236,-0,128978649521162,-0,0711540769381492,-0,14524112855645,-0,0929684026440572,-0,060373461462702,-0,0996976663534831,-0,107939024260979,-0,125117300925713,-0,0732604688329578,-0,103074110698163,-0,0775583035022596,-0,147190738184707,-0,104253695198795,-0,147969629674212,-0,132860834167122,-0,144176737976927,-0,0683902530855162,-0,0735661092988618,0,31939242406897,-0,118797091349528,-0,0676148088799784,-0,141878394016006,-0,124567103022717,-0,103215005172538,-0,118079555624638,-0,135902616228235,-0,129687146434726,-0,134502146459737,-0,110719683227022,-0,110501435841114,-0,0902209204331453,-0,121241306169261,-0,0760822654179425,-0,120936887609055,-0,107221593284578,-0,0878390155857577,-0,137871954354377,-0,135365524783489,-0,067986203595853,-0,11475448837803,-0,103124273345738,-0,0654297840770099,-0,112870864010253,-0,106823799759092,-0,139068557797678,-0,130816986799435,-0,0803001718066312,-0,0520162042646827,-0,112703719397469,-0,120719390168867,-0,125292804327358,-0,151457775267051,-0,0834266211441899,-0,137324699741919,-0,112106303352882,-0,151004916519137,-0,0995118523214065,-0,0868885350344575,-0,112415525312429,-0,107618308992004,-0,115528848472233,-0,127053792855428,-0,0818920535390637,-0,070268925068662,-0,1240675495714,-0,0678295196545408,-0,0974093528632884,-0,0884450405423304,-0,10111437444137,-0,100163544949234,-0,0882573757773547,-0,100677144949517,-0,0802603113723441,-0,119539926470049,-0,104536725965828,-0,0825188428304339,-0,112909183342412,-0,130159345805616,-0,135923977611102,-0,109388250690471,-0,0903791426019994,-0,0533614882186248,-0,0748225341598004,0,30810900625072,-0,0794821616601613,-0,0959908874837707,-0,0798872412909984,-0,0791261755233489,-0,112143525778336,-0,0863887980626271,-0,102245161601774,-0,125199190580405,-0,114829226712014,-0,0683618727944007,-0,111858399263596,-0,0915580136109579,-0,0935356296899023,-0,067448729509269,-0,0940437282476189,-0,1064536539481,-0,0961355976112969,-0,1377957482103,-0,146357997377922,-0,134695750182735,-0,0986187378584387,-0,0707303323389571,-0,0951296197272257,-0,0911039560470291,-0,0760643499834188,-0,080916358245968,-0,0978290732021263,-0,142681517239262,-0,0858916511756651,-0,127791032948953,-0,106436062434026,-0,13929670062381,-0,105141551573062,-0,0894782596702989,-0,117685311226514,-0,138777932800733,-0,127388159891473,-0,149973363893768,-0,0860802322099958,-0,0990117277307663,-0,0826696339396704,-0,0930469721471107,-0,149984589525796,-0,134984618511923,-0,104500884222473,-0,11464866800967,-0,0916681708841259,-0,121346402428897,-0,155164299366,-0,134720580508408,-0,0855351800107885,-0,0565081442465334,-0,107550831719253,-0,127012986818074,-0,107263783778729,-0,0828821536398183,-0,109987883140625,-0,153145055091255,-0,0823562300500131,-0,109463626413959,-0,154054098944362,-0,119209052875859,-0,103363381971351,-0,111419277823454,0,299747478907552,-0,0914729182161344,-0,086643794604013,-0,0761704066109294,-0,0821691836824942,-0,1071623299668,-0,150484581926543,-0,0710146700462772,-0,085579728013345,-0,0989936894147192,-0,0699877698770721,-0,163793413886349,-0,13338624925955,-0,0821851745506964,-0,123745834890693,-0,131741734081302,-0,0928338761655091,-0,124422990561254,-0,126087160188955,-0,129039607348597,-0,116951620369396,-0,108966244092027,-0,0939008388177847,-0,0667173829942626,-0,0866685135310033,-0,0923388833021927,-0,119351801389456,-0,112347595182007,-0,123616027694886,-0,0527287757720771,-0,0621433970125827,-0,109208979396589,-0,148477138019324,-0,129297445956383,-0,0772925855034903,-0,130444539389189,-0,106444336337952,-0,174947023580482,-0,114134562203987,-0,0979107271041028,-0,126594308735855,-0,0731438240854229,-0,10399801858071,-0,147566233150589,-0,0992088565206481,-0,0903024532623478,-0,153345071379853,-0,137017297964679,-0,0674001518376904,-0,121222006381563,-0,0907091865777363,-0,12088098130838,-0,103193657003391,-0,0732062245025716,-0,0895811851438576,-0,0758036561869398,-0,117500190562283,-0,0831844741945774,-0,114387037711584,-0,128297297483422,-0,0969223613294409,-0,140141155647716,-0,0841036376830644,-0,0947778856064239,-0,118590676456619,0,329285444873395,-0,136153869969115,-0,109131184954074,-0,0691324841416996,-0,077756137039515,-0,122714946282851,-0,154269000378995,-0,0854917858712136,-0,132880847501952,-0,0927368744640002,-0,11830905491776,-0,114414188134868,-0,101628584224415,-0,107493215444814,-0,10374338709709,-0,0884247070904439,-0,060975725409819,-0,0684114777615941,-0,10784287600357,-0,11593132185825,-0,115010305112073,-0,156225717172277,-0,102649303318268,-0,0663710039090897,-0,137603670396834,-0,110841377192178,-0,0870681510086426,-0,132765328289742,-0,0968455447146396,-0,0634763291590883,-0,107467597928312,-0,0860984025776854,-0,0820827587701446,-0,155088999518794,-0,0826548783658569,-0,111094427133054,-0,13736143644723,-0,145026805999558,-0,111396649598373,-0,0944369617867452,-0,11569930595136,-0,0894624248600939,-0,140193541453091,-0,131930055069211,-0,120703833569244,-0,0672071852216037,-0,155117708632287,-0,101820923551058,-0,0689805905615389,-0,113579841665937,-0,112000010926967,-0,0581690465801545,-0,0990191149600493,-0,116298381622186,-0,0864939238552472,-0,103240575057023,-0,114797951226423,-0,102090400812536,-0,11658120814249,-0,113958885680528,-0,110265417102842,-0,173287398267902,-0,149499052491848,-0,100852168606295,-0,094904162899334,0,267505595199313,-0,0956209830788876,-0,0656114352582233,-0,116981982646498,-0,0625521684196776,-0,0878267183474955,-0,117632578496496,-0,0848320910146253,-0,0805735062412419,-0,0964889061537995,-0,0841678460584009,-0,0994024496230348,-0,161799917983913,-0,0473676335703247,-0,0722847677897643,-0,148896898193545,-0,0688250039825285,-0,0716288315732259,-0,0854934040458733,-0,154701404338861,-0,125497754788323,-0,136239099943701,-0,0804016022679775,-0,119305120007378,-0,113635641530281,-0,120273107834481,-0,0730611836270625,-0,102819198276918,-0,0918014018161738,-0,0925656247520031,-0,0900467180551751,-0,134384771230077,-0,109089020222687,-0,14764639986132,-0,0998717395664084,-0,0684182747843229,-0,115858141886294,-0,124658930790439,-0,133717695558969,-0,12152011671015,-0,113903719486248,-0,0679431263145895,-0,0852765911939852,-0,127828709574524,-0,102019404192938,-0,0754030519114107,-0,154136866928957,-0,106801858904151,-0,114292794406576,-0,143257118374573,-0,115760908373276,-0,0989086735168739,-0,0939900561452362,-0,0745100561490946,-0,138552761179616,-0,113892675849363,-0,13464459686008,-0,115370596483543,-0,143827708573905,-0,123738471477169,-0,148521938363917,-0,153178424464721,-0,0970079583453921,-0,0922208821273361,-0,092659277754747,0,274697876542291,-0,127088532374293,-0,101606328716163,-0,0781187751786715,-0,0815284889782208,-0,086432842146476,-0,155036794076725,-0,126041135518101,-0,0811095610868486,-0,115809121229234,-0,0731663639770054,-0,1316252722861,-0,100283028783055,-0,0744884679718271,-0,0999184954488202,-0,130057208472836,-0,0758527430936155,-0,0742087149943879,-0,120534664851752,-0,115812877048038,-0,140968038231849,-0,112224013816059,-0,0951403355683764,-0,110330724776572,-0,0981991036868477,-0,106794655313117,-0,107974504201374,-0,080074044711882,-0,129065933259184,-0,0600697011348115,-0,0583097700077028,-0,143130349320975,-0,15415875657101,-0,157750527305363,-0,103961703599644,-0,107805611284116,-0,0782120896444232,-0,113896163962043,-0,142203036368102,-0,148354555654873,-0,143364972713368,-0,108373927859654,-0,117637988244945,-0,0882595320448048,-0,0820313455322918,-0,081223217024349,-0,0937009375321927,-0,12076005913791,-0,129655861375129,-0,114142051715537,-0,13881881692483,-0,107485989548977,-0,0629644622644547,-0,137926135607858,-0,068867586543697,-0,0574437115403251,-0,100609509248191,-0,0896681070945865,-0,118495169218564,-0,148182935039112,-0,0912157720348214,-0,151799248826407,-0,0873062269332645,-0,0519025065401279,-0,114979976672509,0,26904969058753,-0,139337249469616,-0,107049325663115,-0,122118536772931,-0,0722479537470355,-0,0988175489266241,-0,0908046809181732,-0,109456263219968,-0,119752544120027,-0,138046954595939,-0,122717597445712,-0,160097713938726,-0,0909066351222745,-0,049283352882601,-0,056211308992848,-0,13617252767867,-0,0707006366047345,-0,124625929238612,-0,0783697221855719,-0,126303582995473,-0,110240584999686,-0,141319406121738,-0,0987391849396883,-0,0752142083708144,-0,107878396246096,-0,0630092176361599,-0,139526636571223,-0,0914534067794955,-0,130549995615849,-0,111448417683503,-0,128872537205777,-0,143066492964476,-0,125208830417408,-0,0985962020148664,-0,0509869050612841,-0,0637238333387322,-0,0789866701715908,-0,14667692014045,-0,0991582153122497,-0,135426480324127,-0,140718311778893,-0,0696072564292778,-0,076519233729945,-0,107661885508172,-0,0943389685105045,-0,0773522605025719,-0,151093114034657,-0,0781306989541487,-0,105754120237555,-0,153347335964679,-0,0859498887242902,-0,103523954156079,-0,099488304176558,-0,122886929783941,-0,0786002264209061,-0,0767735877163328,-0,133803254648948,-0,0845845417079794,-0,11177603410233,-0,147512579857959,-0,138670392800432,-0,143810607880144,-0,102139898775859,-0,0948102483209783,-0,0583138877570219,0,310508115555138,-0,106703881642739,-0,055188028658857,-0,106581857910419,-0,0661434119123232,-0,0730742880772104,-0,125758857957906,-0,124826429671937,-0,087042959424008,-0,123397306942819,-0,120140645671299,-0,130328942393971,-0,112335650105289,-0,109285116656231,-0,103625598024894,-0,0906574882044461,-0,107915079989564,-0,0939254320555776,-0,0805219665689362,-0,148371180263341,-0,0998037115769237,-0,1060203923015,-0,129024158524576,-0,0680342956724654,-0,10397556432453,-0,0716662365241315,-0,111366141821174,-0,132336622587561,-0,102529645310281,-0,112702314841389,-0,0721093198851986,-0,0978945605258176,-0,159368477294826,-0,110285160920027,-0,101974669731195,-0,0936435110962357,-0,0967383596673452,-0,113972271772858,-0,0931811722816511,-0,158929400426015,-0,117420301841857,-0,0987000297096899,-0,1347218959001,-0,140866879595697,-0,0758875207134289,-0,112756723959155,-0,161773219944278,-0,0763367353280182,-0,131911906498839,-0,102261382538315,-0,107356194960204,-0,123284334406547,-0,0825956437613132,-0,0813385148953771,-0,114835936719436,-0,0989076045139382,-0,0814543230091016,-0,0887043096182328,-0,132076481316293,-0,133893393528868,-0,111181178758834,-0,1475850515449,-0,136704919562334,-0,084729274106388,-0,0935112127995271,0,309346465622539,-0,140707142543187,-0,0623332562998287,-0,0858838415077248,-0,120462202990888,-0,11186297723218,-0,125547094055214,-0,120092669849255,-0,0766085438856955,-0,0796380482204154,-0,0879897304557336,-0,169977801656364,-0,114670762756675,-0,0843283312388204,-0,0628617791691805,-0,0915840164765221,-0,125834808620137,-0,131076454227876,-0,0853671952303707,-0,122425565347552,-0,13391352127381,-0,161197523131731,-0,100801731612174,-0,0973526112959754,-0,111584389594266,-0,0870532522000163,-0,117267928526011,-0,0925820174284441,-0,0908735199347901,-0,0929892999495156,-0,108410058062672,-0,11780952113679,-0,103024217325072,-0,142001778051315,-0,0917617708241844,-0,0617524817658927,-0,0772805730209046,-0,147422883279488,-0,0969730107131331,-0,132642753293581,-0,144702666603892,-0,0672170076804663,-0,126982950664626,-0,102286522370501,-0,0730479064545141,-0,0444231089836517,-0,15999126897117,-0,0745353461804931,-0,0577371370625251,-0,112308021941884,-0,140035777245473,-0,0887135291647781,-0,103672823670579,-0,0690138000119976,-0,105782300446047,-0,111319170067838,-0,126600644842566,-0,0817588928510892,-0,130677453119374,-0,0852830822290085,-0,114224601575789,-0,171778517557544,-0,150584995398565,-0,0687393395417154,-0,108040401073608,0,332429675230221,-0,0730909264704551,-0,0760520845730233,-0,113701401394642,-0,0936481544464521,-0,122127823490999,-0,08824630220202,-0,119922931765348,-0,136849442419732,-0,1133944850942,-0,0609845480908448,-0,1127075999803,-0,0868939970198636,-0,0791126973611882,-0,0987338084843402,-0,114270023237318,-0,122847277185044,-0,0593670899167594,-0,144073706508365,-0,0894070044851482,-0,0995202458750232,-0,156561960731167,-0,106295576030062,-0,104001707892224,-0,138015779241147,-0,103228819244398,-0,105461509144413,-0,0725288250356216,-0,115946327074764,-0,0579568803765315,-0,0967838746503596,-0,0884294198247354,-0,085826480830368,-0,115966417810381,-0,0845365631755953,-0,0739809941418268,-0,11378925876436,-0,127904667316445,-0,146578742113519,-0,152744147392435,-0,1501283002887,-0,131077240393701,-0,122088538568103,-0,134173447106244,-0,0857255262748396,-0,0724378209127955,-0,12521564237408,-0,0875755712083267,-0,111493326731593,-0,103237527293923,-0,114921448242237,-0,0964240480918557,-0,106870827291869,-0,108499259362586,-0,0809329919579375,-0,122778230273286,-0,0943901812005271,-0,114344395639324,-0,128972207580682,-0,0751044005368047,-0,133600786929952,-0,131994296169517,-0,134972623021822,-0,10303967791074,-0,114145265251605,0,296888558545359,-0,125871311053049,-0,0798961604818212,-0,118893983151779,-0,104554778621728,-0,118044105116222,-0,10591498377656,-0,11994059474058,-0,0851566784116154,-0,113640716128274,-0,111420208766951,-0,160955815850778,-0,0927620990420198,-0,0626474666811533,-0,0885630066499903,-0,135458379516702,-0,0881619113643726,-0,111562497978668,-0,0814163554253326,-0,150665265141183,-0,0859337127939534,-0,100179148047101,-0,10374482781567,-0,102125689779774,-0,0843067043196112,-0,116861615329416,-0,0821085979471835,-0,0946214110771926,-0,0942810922399196,-0,0730808912545284,-0,0656252798735818,-0,148213991964098,-0,102882314853604,-0,136849925793178,-0,0692337552611977,-0,0678147535410086,-0,125101207586812,-0,0967368418871169,-0,0765191319656267,-0,103198817795418,-0,133331831827111,-0,0960966451215254,-0,108777223231506,-0,113709512224666,-0,0816770142087279,-0,0934317003769032,-0,107174834439275,-0,0924742750297061,-0,107218132913156,-0,139674263775442,-0,12357875219941,-0,10386230802412,-0,092626640022635,-0,106667860935439,-0,0909899779900376,-0,119244779921492,-0,139648448302564,-0,141867955328175,-0,118287702680147,-0,113106889103535,-0,127571630168079,-0,138649139770882,-0,114871058053729,-0,0757186261606601,-0,0881047710307914,0,328669817428883,-0,0842080486421545,-0,0715534359815238,-0,102600697969031,-0,0813975119268404,-0,0936881871402868,-0,140463843286057,-0,112191668645232,-0,141944670353258,-0,100717725507358,-0,104081176682011,-0,148179293909453,-0,105307487648746,-0,0797494760627161,-0,100232364886884,-0,0873638858571545,-0,0966017808637704,-0,0826395379733219,-0,14210014782326,-0,115022896460197,-0,136290818474308,-0,158774480080117,-0,101914128554809,-0,116014083045266,-0,117998932852963,-0,0617684323471311,-0,142866792248344,-0,104985436879766,-0,0936716634170065,-0,11168268296312,-0,0822537991399933,-0,140485955612676,-0,0909507430647909,-0,112793382992289,-0,053936362166875,-0,126566965196595,-0,0917804763655348,-0,1563312641426,-0,111235553652231,-0,088103218577898,-0,0856346163004728,-0,117255952900367,-0,124331486133077,-0,111935535756392,-0,0939212719233628,-0,0429557444046746,-0,1491580148837,-0,0781439424578405,-0,115990734552921,-0,122708828092171,-0,0974456296814004,-0,111047790582004,-0,074744116065618,-0,113092796201661,-0,1307520505722,-0,0622434278292888,-0,102390955048349,-0,12162738335118,-0,0867780924037019,-0,103076333156224,-0,119657382990582,-0,138614026586405,-0,0950733564983536,-0,0850020436242976,-0,116417877923143,0,329159220855173,-0,104720548086939,-0,105776171283007,-0,116943442711817,-0,0578016728848055,-0,131392829326208,-0,144439675136953,-0,114437957895683,-0,122642222786745,-0,119736656002493,-0,0991288910187186,-0,11224454431106,-0,0950403773375236,-0,0964834870010885,-0,0559052944836989,-0,148148187002988,-0,112261229322588,-0,103539279305437,-0,101976479937775,-0,111912062808686,-0,119763880147942,-0,154351739704827,-0,0875604513621457,-0,084786724376615,-0,102483342082867,-0,0698356631395114,-0,135778588112537,-0,107565121254686,-0,123644338045869,-0,0537312380113718,-0,0549217565655543,-0,0799605082652678,-0,0821114866272892,-0,133452248427634,-0,0787465126276152,-0,0993698832755892,-0,135671925987778,-0,0969728030531982,-0,119766537461315,-0,103768059720692,-0,0989007872162802,-0,10007042856905,-0,105144843697769,-0,144903837823996,-0,107434704204377,-0,0382648686826156,-0,131373143805132,-0,0895209410561754,-0,0808345281467689,-0,142477582262366,-0,13259277555355,-0,0992119769236402,-0,116211785866383,-0,111459037462763,-0,109300233418198,-0,0527220900278505,-0,130845376556987,-0,109741606835097,-0,146992249880014,-0,139222639513435,-0,132632248827062,-0,162037278813528,-0,0781735187931165,-0,053536155132009,-0,115786629470599,0,29680618983369,-0,087367170108557,-0,0706437919411849,-0,100724684807102,-0,129657978390239,-0,133251155834261,-0,102471883300743,-0,0741534630519422,-0,102483881611883,-0,0981795966217004,-0,0520938298994221,-0,156736415989476,-0,133582257552747,-0,0633255258153157,-0,122676163941058,-0,143883229221315,-0,105314069136353,-0,105686354624689,-0,0922181053117439,-0,142913867453211,-0,132952985490528,-0,130778211082361,-0,0724790035275572,-0,100741695901572,-0,133504870884496,-0,0907979003776147,-0,101903606337443,-0,089130646981385,-0,139678892441318,-0,0533909425063212,-0,107125076550417,-0,14493215799089,-0,135893838465798,-0,105764919010055,-0,0964442660039374,-0,0992471855933736,-0,11900018993369,-0,094492408064779,-0,133762229898862,-0,0765042241387678,-0,125224262134075,-0,0820454627764705,-0,106863772543032,-0,135658776465652,-0,122394610657359,-0,0835173298638591,-0,118061101005569,-0,0787736023096004,-0,0782699054065228,-0,140069316445481,-0,118296722493623,-0,120223169138062,-0,117471083135287,-0,0761936591787859,-0,0767445952673121,-0,114287634117035,-0,0803087307034668,-0,0947753850565075,-0,147170387549956,-0,114773661669981,-0,081049056503827,-0,120961357009398,-0,122327762575142,-0,0863362136321732,-0,0569505803590516,0,3230004811481,-0,141929742230743,-0,117392227133047,-0,115145714462057,-0,0732996606346362,-0,0717626952030444,-0,103810664257476,-0,140696949539002,-0,13701404031925,-0,116831718807737,-0,0896322779954331,-0,129192988050704,-0,09614734376135,-0,0509379612609436,-0,077226701996908,-0,147236679169328,-0,0835483926178451,-0,0988951928250038,-0,104439028734693,-0,0948769834488291,-0,134645763004388,-0,116583781711594,-0,11222786896601,-0,107338681817893,-0,0768263136006155,-0,0597775251003861,-0,077323450143372,-0,0775012684829624,-0,0841696290944214,-0,0633288407751269,-0,124205112524408,-0,108020334129715,-0,126459134707034,-0,135651692485482,-0,0604220321007709,-0,132024651567301,-0,148758720949998,-0,117761160673907,-0,0948911322082035,-0,154673698526405,-0,0913049165257136,-0,0896384879782056,-0,134725873333661,-0,14872767517499,-0,108927985282172,-0,0794856942921919,-0,114368419077227,-0,070412541314724,-0,0845759059128094,-0,128349437582541,-0,1372168200077,-0,118970474574856,-0,0610886878394552,-0,135997281433001,-0,127618347945198,-0,0684674010175486,-0,111812341947631,-0,0968712973531631,-0,152840805053848,-0,147234502117609,-0,133251517594416,-0,107034808194196,-0,148873095641918,-0,0640103896935368,-0,0835779134202073,0,293669084819547,-0,122772475542257,-0,081085432524375,-0,0895177869379735,-0,113761135583348,-0,0999347174144606,-0,0932245746525005,-0,114924454285665,-0,109843996586935,-0,131993300014397,-0,0666693847548873,-0,166507447544521,-0,123972173163125,-0,117372529210267,-0,0881848291199636,-0,0861280218896704,-0,119229387381558,-0,103127494911684,-0,0937248900050855,-0,0932240184774453,-0,111269816237548,-0,100734789147062,-0,0745139139146736,-0,0846735869770407,-0,115650626395354,-0,0936797587237717,-0,101303566964923,-0,104922628250935,-0,102844831684667,-0,0921718393798503,-0,115374968435006,-0,146738969516777,-0,108565348841206,-0,159534754573462,-0,108700522314418,-0,106018760996106,-0,0838869661877647,-0,137872676397203,-0,132453393806125,-0,117522815398117,-0,0815729816886251,-0,0826145066726496,-0,108853444006687,-0,121021930078657,-0,0938656216720166,-0,0507286406404232,-0,110773711092512,-0,117859983014107,-0,097568848457562,-0,140038821170975,-0,118947675080413,-0,0891231494689995,-0,06814772773882,-0,0679215426507956,-0,106454628478911,-0,0750971983484182,-0,133764247427297,-0,118933962410793,-0,12444314438377,-0,0963288258279001,-0,14504320726041,-0,144454904350049,-0,100913476366887,-0,115490096625939,-0,0717438287304058,0,325237981582247,-0,11343410603448,-0,0917220089686196,-0,0896179063770341,-0,0961730446730097,-0,109320143982347,-0,113525610552789,-0,101620091589077,-0,0784533386549613,-0,103178132361174,-0,115239285496938,-0,158901338811458,-0,116286414155688,-0,104956294156068,-0,0977498098416149,-0,145628848282272,-0,123309228294176,-0,0744494621983532,-0,130868382584426,-0,0949732389123141,-0,0948983856945532,-0,142927216144259,-0,10246128599588,-0,130424109827964,-0,124001655866796,-0,0640421082725334,-0,0787148809750869,-0,0623997047235074,-0,0816044441698368,-0,0650503601170219,-0,123681471551967,-0,134216812346014,-0,120159894294233,-0,0939239187491005,-0,0778761488815038,-0,124541550688345,-0,0759516598027742,-0,142053953170408,-0,0893944360453586,-0,111065165229565,-0,136219775698378,-0,0821466500091306,-0,0673799518323122,-0,102141218633997,-0,0786598542803325,-0,0667236472902537,-0,144618862455087,-0,125405308855559,-0,122349030893413,-0,123964496150094,-0,141965222565485,-0,0961923404460944,-0,0493846218803438,-0,104971025920498,-0,125669015161145,-0,0718144442185552,-0,120994830097016,-0,135627809405204,-0,121556390573901,-0,132721283189622,-0,108622973590269,-0,159570953348894,-0,119144355014693,-0,110850252070566,-0,0594351211962794,0,282364950280198,-0,0750051694587288,-0,0523365791199333,-0,144930210728762,-0,0826775241340064,-0,0941070441181961,-0,145049910446712,-0,079071386423856,-0,0846260513721829,-0,103713747808821,-0,0768563474654773,-0,108128298354487,-0,10646872396782,-0,111287102296249,-0,0788479768264189,-0,106499539199007,-0,0692677554550026,-0,0661771305031638,-0,0991654767361374,-0,149925348526242,-0,128319671285888,-0,151437229074008,-0,103119800308776,-0,0814009323440027,-0,143018573084667,-0,0814191237971967,-0,146751817895985,-0,103835358956334,-0,0800148019725553,-0,0637173355182243,-0,112337749266824,-0,147831191041234,-0,12579718622165,-0,0986144095178251,-0,1099619499169,-0,108730810052261,-0,115158398629907,-0,106737573101088,-0,111787075995847,-0,0809464180915156,-0,135723470915609,-0,133242893124255,-0,118916875480431,-0,155368328673766,-0,129738929015834,-0,0480428389313774,-0,142574410217005,-0,0784693206112288,-0,128170312589565,-0,122148585981671,-0,0965096416302842,-0,106569621702802,-0,0538154291665036,-0,106479107524696,-0,0874683321746444,-0,118635098016453,-0,100516811612251,-0,0776437394477338,-0,110616363116665,-0,0930222477431422,-0,15098037368791,-0,139941982867207,-0,11841000933535,-0,066351632997221,-0,0906434807940426,0,327841042409729,-0,0859030104606795,-0,112521490093708,-0,0867269439682175,-0,0992772802943322,-0,0831797830742816,-0,110481740897621,-0,0732833975963647,-0,120600881328491,-0,136490461841608,-0,0775041663531987,-0,12533468269931,-0,136223261264103,-0,102032646949478,-0,0823790036275864,-0,0906129912225422,-0,110361018600084,-0,0946569817246437,-0,112468204838256,-0,138850568619161,-0,085884540701804,-0,10490439787745,-0,0763567041720291,-0,102548702606551,-0,130903258294007,-0,126842579451157,-0,109846959297535,-0,11194835258777,-0,142363426729037,-0,100433961043928,-0,0809932048392203,-0,124496108111468,-0,101510237803655,-0,0978150953500922,-0,0747987060298604,-0,0933888645208436,-0,130376948112413,-0,156682516569852,-0,11018127124564,-0,120277369908908,-0,130153744475381,-0,0750095545057418,-0,0769849732833818,-0,148897651564927,-0,0919646869178035,-0,0481389415982962,-0,171215243187525,-0,130366769989615,-0,0683203517869083,-0,12217912347971,-0,0956703548683108,-0,085764110840426,-0,126677302851217,-0,112792093245781,-0,117652167145195,-0,0649964081844233,-0,118015447315268,-0,0790615327184694,-0,115930208022224,-0,103635408187189,-0,0937959488196262,-0,179072839545911,-0,120265629680164,-0,11032008764047,-0,112431626194475,0,314660697184585,-0,0946218810366023,-0,0473407191306111,-0,0853380656465485,-0,107931437298915,-0,108618477513686,-0,0920218234660916,-0,135510390949034,-0,0990006503906011,-0,106875069884422,-0,0719818250632852,-0,152612359499428,-0,152178125660217,-0,0818401409996441,-0,104623416418021,-0,143487998806523,-0,100529034812359,-0,0715116542479195,-0,14355445376654,-0,126787349345855,-0,104809760087718,-0,097460532743339,-0,0829095761082733,-0,107467806829515,-0,101270762494513,-0,0914728052838358,-0,0930548891276329,-0,0773241775995305,-0,135908459938221,-0,066572179813922,-0,0831266039584703,-0,104939685375486,-0,146813848372788,-0,153390515747392,-0,0969855650267997,-0,124545053163121,-0,128416881426276,-0,144146420809669,-0,0920074928943434,-0,0874524455328291,-0,126846551665702,-0,111307392584571,-0,101912182849254,-0,142497673432962,-0,136530225296809,-0,0557465714828619,-0,153400409805975,-0,0808396155003552,-0,0697434442923216,-0,0844476681974235,-0,149389240567474,-0,111051459292539,-0,0948693748101356,-0,0888115126674906,-0,0969800076935851,-0,0777570462603015,-0,13902044831601,-0,143419836379501,-0,130660049891869,-0,127928546052468,-0,139066272521776,-0,106794420538741,-0,0909970876007141,-0,0689380710791574,-0,0619063901028386,0,318207900874402,-0,125657553439001,-0,0660519858521174,-0,139720597075082,-0,12203480315613,-0,0760045906021923,-0,0926863818099314,-0,0684268377282422,-0,0796192275780593,-0,131336563359034,-0,0679802566041275,-0,133229186954358,-0,0843222753445271,-0,101586109401739,-0,0714590086236519,-0,102025565377484,-0,122648916890647,-0,118228498161956,-0,140657442209723,-0,136331411561103,-0,0893572588546274,-0,112014331353835,-0,0969057681212721,-0,126717383610715,-0,0943585661169569,-0,106825543201938,-0,140900628403621,-0,122991676070779,-0,102291282169784,-0,0659382623784577,-0,112385871603271,-0,118018851394484,-0,0866170259119052,-0,101833839280338,-0,0817462652113363,-0,124790077733641,-0,0806061624372123,-0,112748585761895,-0,133357706324179,-0,113368188663646,-0,141588828393878,-0,135061673815689,-0,0758233637096534,-0,124919089885962,-0,119772264132473,-0,0982053566177261,-0,1426384324846,-0,0849184248182108,-0,124186894101191,-0,122439878078303,-0,14549580101234,-0,0759333346462454,-0,090555498248629,-0,0861134369948427,-0,136331025567648,-0,0916138911487397,-0,11478527736806,-0,139554475511904,-0,0922482411220063,-0,105145044434232,-0,118627537160996,-0,110723327713143,-0,121149502246798,-0,058953169190675,-0,11431699628186,0,277146449463211,-0,105010125192657,-0,0801717521208106,-0,102941905422394,-0,0720649280272944,-0,0904153872383321,-0,11380171344815,-0,0902568054791178,-0,0702299893338306,-0,0956789184078933,-0,0888379456357303,-0,113257820114278,-0,089118317890682,-0,113350839836601,-0,0545594803135042,-0,0978095899534165,-0,104229525716993,-0,0953479495310866,-0,117133004700406,-0,131422188243704,-0,129305398143892,-0,0951145489003602,-0,112389991526865,-0,132219172227511,-0,0848631082926979,-0,116995790201202,-0,0803430216654108,-0,0973889652748744,-0,139279390824785,-0,0775024613960712,-0,101186307650073,-0,0838454412468932,-0,137075925578298,-0,143666019865566,-0,0671877893478196,-0,108965067368648,-0,135907190198183,-0,140021036329852,-0,124686971900643,-0,0914147454566229,-0,134828102998602,-0,0740248936393341,-0,0745554542415115,-0,110671177582686,-0,106023466355089,-0,0796958841402923,-0,109173211644267,-0,0914258379075929,-0,108210236114252,-0,106542922991966,-0,152467004812432,-0,0814465527111235,-0,0874771744503527,-0,137312071869985,-0,121162212209899,-0,107598320288991,-0,117980318148529,-0,125936138289807,-0,141886033123702,-0,123283795249963,-0,0952289767757359,-0,154066962186544,-0,123305359483941,-0,0641446069203655,-0,0889084406165507,0,341201914701237,-0,134297153406997,-0,0937770856605044,-0,0789093413284651,-0,106732992914973,-0,097382401601548,-0,135790148240925,-0,0908330941232989,-0,0935420460678842,-0,0865730238038774,-0,0925384856051772,-0,144756735282801,-0,124952788733874,-0,059288688453535,-0,121037140174478,-0,0900160978880837,-0,0912794639959905,-0,0735902180752594,-0,125274479879395,-0,0871190523162806,-0,106731418835566,-0,159311849020314,-0,132700750379115,-0,125907682676724,-0,109476480501592,-0,0530283040538525,-0,0789571531071372,-0,12717114924741,-0,119374442736286,-0,072395145271218,-0,0931596564347607,-0,156761878621445,-0,127079993754621,-0,135356977842415,-0,103479419684587,-0,0935829517760564,-0,123126639392669,-0,149793390465157,-0,123361305281131,-0,0903804636946497,-0,135779450822679,-0,129179323017705,-0,119410496298079,-0,150538208713586,-0,113453410832017,-0,0740021415685929,-0,152970126214258,-0,0783577853016199,-0,065393186575483,-0,10873243577743,-0,0978759337068211,-0,0787165071342476,-0,101084504348268,-0,140336841806545,-0,068910943927802,-0,0721447184498397,-0,132281046613535,-0,125762033373642,-0,0876471509105789,-0,10393071745966,-0,121115106397927,-0,106263277042811,-0,122070939941613,-0,0508657376745146,-0,107855517899987,0,316164988312044,-0,0857609188854963,-0,108408439237956,-0,0813403384203773,-0,0723067727361352,-0,0785528496857305,-0,122741377191047,-0,085650302513154,-0,110495137945337,-0,0763659069000869,-0,0654048733394901,-0,153321214052774,-0,135307568753356,-0,117210418573333,-0,120520053332054,-0,104066267130288,-0,0812364697251872,-0,113041581053081,-0,09383414332302,-0,143580367855602,-0,0798422079599376,-0,0955208644542085,-0,101839119176036,-0,128302495260129,-0,123975903800205,-0,076893522508076,-0,0786931125615599,-0,082295868205547,-0,142758796492643,-0,102176109913387,-0,0881826604103277,-0,127612185449942,-0,125100176210429,-0,10885666007697,-0,0543021722300811,-0,0958692125725216,-0,128520921371569,-0,133980402054683,-0,138377557868677,-0,13777953389151,-0,139196661458219,-0,128078654654442,-0,110468826557066,-0,137924924295948,-0,0981530829323555,-0,0587144636078167,-0,12707265792771,-0,133781121608978,-0,0998063050161311,-0,115299059652056,-0,139253329436489,-0,0701537722931043,-0,112565546158184,-0,0809346374462784,-0,123990253310018,-0,0943137657372594,-0,127601156175415,-0,0826147472757622,-0,12604752036661,-0,125623962705442,-0,122729110248406,-0,144280839300256,-0,0777098488971545,-0,0596371717368521,-0,070484120972464,0,285422902294037,-0,0975541509342345,-0,0882128964071711,-0,122285472671152,-0,0617370256648834,-0,0900536195288789,-0,148069178727057,-0,103569574556208,-0,116308070449377,-0,11317014093166,-0,122377465055218,-0,13132597734017,-0,113215184101176,-0,0917631565470483,-0,0869440422418808,-0,146869084998037,-0,123971968089355,-0,12700159366884,-0,134423139772077,-0,103561527004247,-0,110172601575278,-0,147065510995804,-0,106757476417131,-0,102387173098037,-0,123395668500939,-0,0953180876575788,-0,0996079767373645,-0,0797819947605332,-0,107638658752724,-0,107575215860228,-0,0804915804444653,-0,0986429149180821,-0,114126894485364,-0,134642318571315,-0,0816729000902553,-0,110418216375808,-0,12322292277879,-0,171941562878686,-0,0910058947887337,-0,0876123082941834,-0,105053857722101,-0,106744291924593,-0,108797783191519,-0,107530700382413,-0,0759773254415438,-0,0472605299833277,-0,120852735903322,-0,127347586098502,-0,0618198490354513,-0,0949539706551021,-0,113236809510644,-0,0782123367374531,-0,0868940952794827,-0,0815385988304038,-0,0819318925391266,-0,0831698874944973,-0,0748778579649825,-0,104247801580796,-0,145924201844949,-0,146718963454945,-0,100100806059733,-0,145877395051386,-0,116579255040952,-0,0942486594646404,-0,110726604443795,0,298386504105329,-0,0891794174751959,-0,0955301559474823,-0,13716984557498,-0,100227090657742,-0,115888642706231,-0,117960584312548,-0,0726194151179781,-0,0983624655567738,-0,078922908881083,-0,0539409323944929,-0,175520826281111,-0,143978172670562,-0,0502900217115476,-0,11759468668681,-0,123063911845041,-0,137473548905781,-0,129636836671578,-0,0805986995738267,-0,104387047084355,-0,106485818882174,-0,101469570021334,-0,0952803101779497,-0,109484879933419,-0,0803870853715495,-0,108881886783351,-0,111289010417153,-0,105452655664084,-0,126206976327438,-0,0662565590560458,-0,0779228376887655,-0,162937280120069,-0,137665125323935,-0,0899116174465877,-0,0993161295628553,-0,120804586628299,-0,148765750339399,-0,114481682129774,-0,0843559231538305,-0,0920096432977847,-0,0932425335847834,-0,0683973678693515,-0,0911070744196772,-0,119691445494647,-0,0848899943720122,-0,0502217132912988,-0,0983131053910733,-0,129085529054238,-0,108990954431527,-0,134488983418136,-0,102562732265912,-0,0922629264603018,-0,109009125749836,-0,0805466799852985,-0,126118926238776,-0,0724982527205086,-0,112729566665071,-0,136481027836749,-0,0970953281770671,-0,0971522151419317,-0,0861768094285542,-0,154883389139707,-0,149634203414078,-0,107255934242148,-0,118280982583833,0,339040753492465,-0,133109699135759,-0,0566613950056022,-0,121598594203898,-0,116204029631459,-0,0787125626732577,-0,10120337069168,-0,105284346980931,-0,0936313232907242,-0,129931191892055,-0,0541684516485082,-0,11986811913656,-0,121731139051562,-0,0981591818050143,-0,0918283344464746,-0,103460100902997,-0,128174232787044,-0,124085928674409,-0,0742497950783514,-0,109779587914077,-0,067422110791921,-0,104657303535449,-0,0756448475850203,-0,0910142084037606,-0,0936706921355097,-0,11301636743883,-0,0768193688641966,-0,116739919131504,-0,0967995707033212,-0,102243824784058,-0,0881790445964603,-0,11345714787639,-0,146848065759752,-0,132933863216874,-0,0958981699246713,-0,0980874996085707,-0,140178457380738,-0,152936916937519,-0,133611681240689,-0,0806887282173001,-0,104648651087608,-0,0902884853237957,-0,116949268047659,-0,131430800758638,-0,094055722275426,-0,10519421639312,-0,156522033399624,-0,080037986175695,-0,10599221069389,-0,119858218212957,-0,131232614151831,-0,0889044818863254,-0,0656484998329303,-0,108464454583373,-0,140384537646122,-0,0916664779127104,-0,144308726060653,-0,128682874000574,-0,13305592156002,-0,0989042188212413,-0,0927487890703309,-0,134656932982327,-0,103231625619433,-0,0774321526584185,-0,0626668006511877,0,299983159088015,-0,112500704263239,-0,0968133505021461,-0,086192600665219,-0,115233619251079,-0,0967932720762385,-0,0906672517150488,-0,0829537297654329,-0,0952234064472762,-0,0838201983335451,-0,0997955288414756,-0,139535861629252,-0,129162672331764,-0,111996172884137,-0,0785419268489907,-0,0925061298226908,-0,12674207813231,-0,112242429742734,-0,0821371251738435,-0,130893565256966,-0,12422069330146,-0,110240347031723,-0,120125139553372,-0,0701946899248546,-0,093298664841784,-0,104104474989721,-0,118950884406778,-0,0594586606445699,-0,12944989878485,-0,0921726413428306,-0,094035937977216,-0,150758330490422,-0,118806499713099,-0,0871260029105559,-0,110594168820624,-0,102275244266967,-0,122830913698337,-0,146907353797883,-0,147852469243465,-0,110580038904229,-0,145744741852218,-0,097309256630253,-0,115753617973067,-0,108805569088032,-0,0968643004294875,-0,0408180389921693,-0,147469117532745,-0,078495299359565,-0,122505313902569,-0,125074422524469,-0,148102857455339,-0,100303848039309,-0,0803910319860254,-0,136460369751189,-0,084826709345641,-0,0587182635497434,-0,136886350451872,-0,114581313339981,-0,148688796754762,-0,0943724812948714,-0,119516006380154,-0,148780441349918,-0,0871404230987372,-0,0695092214769687,-0,0774967537965984,0,306446546766083,-0,141118109958254,-0,0596184841290672,-0,0925680523573384,-0,0939668717195244,-0,0921813193921681,-0,128556772294387,-0,107970030741659,-0,138433312887131,-0,14746245604101,-0,11348444037787,-0,131333968139129,-0,0870664356191436,-0,0698484287961264,-0,115196475175833,-0,1466796506994,-0,129282837634985,-0,0749746712627454,-0,145796040747594,-0,0977505195913551,-0,115427447166642,-0,0936057229201211,-0,0859358971185508,-0,136209731450152,-0,0872859472392621,-0,0833001930835284,-0,148302076563281,-0,0880522868584839,-0,0900802456839689,-0,0987573459145014,-0,0733309356441871,-0,100610802800564,-0,124989095523547,-0,137365562814081,-0,0540160358087301,-0,0629586641524717,-0,0918242131326958,-0,12751905013311,-0,106836458984843,-0,0950738130967197,-0,122778118512209,-0,0919174560452238,-0,10358780981002,-0,141461449276722,-0,105384142787469,-0,0907976267720352,-0,109656427382519,-0,107690346301929,-0,069053607455925,-0,151467163704927,-0,121392969005629,-0,061248425722204,-0,0964568531944587,-0,137384862552345,-0,0804917411800376,-0,104674318710951,-0,141929628781526,-0,0977007594722659,-0,0975966419270253,-0,114195305854881,-0,150261826357626,-0,163169280440425,-0,0951953294312181,-0,0556399004432223,-0,0892932531746769,0,298238352074324,-0,11675520872328,-0,118712861941584,-0,0773933745328825,-0,0667966024933713,-0,100878256117992,-0,100750095956073,-0,0981331757483537,-0,133146702268775,-0,0985327166580375,-0,0599760760576348,-0,146451008551584,-0,0942563394462381,-0,0744623944453753,-0,116325503151974,-0,127028848363602,-0,137144394990943,-0,0802902144528087,-0,124279653587029,-0,11206536762787,-0,0725214265783452,-0,14798019784953,-0,0771673581064771,-0,0764843648059837,-0,121059244393493,-0,105402436561246,-0,1219049464756,-0,0926632300920274,-0,0862212952701568,-0,118562283225916,-0,0731527780088653,-0,128089501723328,-0,0916166743938484,-0,111876007912827,-0,0449119442802906,-0,0893333429848679,-0,140806760091545,-0,159299487226222,-0,0779751918389227,-0,103858151999264,-0,106460328227,-0,135471227522281,-0,11824814598221,-0,102974216230995,-0,0813397509774166,-0,055376788166894,-0,148840607466912,-0,103597896990541,-0,0587941372267443,-0,126026314007544,-0,143679647772958,-0,114268330687537,-0,0958190439862735,-0,120744790050607,-0,0624951491455839,-0,118983789119613,-0,140672875176051,-0,11145005240552,-0,115278398332438,-0,122649104640542,-0,131758930159266,-0,129975119817314,-0,129025012600187,-0,091139545632614,-0,0806575781245005,0,329484612115622,-0,134656812765516,-0,0777953071535684,-0,138287447893659,-0,0975250284959241,-0,104566043921671,-0,119359943698623,-0,126551491340147,-0,111825038697257,-0,0704078903074858,-0,0879346521105611,-0,0944422598825475,-0,102820593665751,-0,0863726649996533,-0,0693825876857609,-0,112453975969971,-0,111103421157851,-0,0907154029637265,-0,084955290634802,-0,149225418413364,-0,125003214971755,-0,130870981886268,-0,122235170079305,-0,120888012343968,-0,0857310909593002,-0,0456818252956847,-0,113181979653167,-0,117275576671513,-0,140006999465223,-0,0455697504110296,-0,124921326898548,-0,103978989573361,-0,108365851524952,-0,145890777548517,-0,0978628654770146,-0,124447150334981,-0,0717815272244413,-0,135115991668218,-0,112698782079473,-0,142314703744383,-0,0908435282489255,-0,0984763532849519,-0,089472106313224,-0,108001530433975,-0,134765376177077,-0,0742117421321624,-0,10592382337299,-0,111415164580507,-0,0770897233950832,-0,131251590911065,-0,0845181161149894,-0,104959937064433,-0,0642701207977245,-0,123960981573967,-0,0945064793228461,-0,0705410300945756,-0,130868026768625,-0,108232268801549,-0,103956668136997,-0,0901162175491901,-0,135063208419861,-0,0971838452576883,-0,136445596715437,-0,110903645086308,-0,100335965568502,0,329718400418429,-0,264884008538166,-0,283917157434967,-0,231601483791501,-0,288849498965688,-0,278268620665342,-0,261743389359352,-0,328259774765168,-0,271849324364641,-0,301091819358275,-0,29594513477486,-0,285873837472408,-0,361268776350148,-0,282098030279585,-0,237061301237764,-0,337297417790502,-0,270597200098871,-0,232791306100995,-0,306599910428022,-0,354747489241601,-0,306918543113103,-0,306976684507272,-0,286268304529706,-0,275259852556595,-0,332736994008922,-0,293426096435963,-0,290795520817627,-0,284121592211763,-0,293019790981054,-0,290221091808359,-0,258094981473353,-0,365736818263495,-0,313184277505904,-0,262395444427551,-0,250163668239193,-0,325947029743092,-0,317876869851347,-0,315572082134484,-0,285326431098371,-0,318138735498037,-0,340743581199008,-0,270610694601038,-0,287167388878361,-0,340621954100874,-0,248963382749597,-0,227479191589248,-0,333368674717758,-0,276370667901312,-0,320355059028539,-0,329993653466714,-0,282336231323969,-0,282791456126145,-0,273405765594405,-0,306549938047757,-0,327293087471567,-0,303848658567495,-0,342270085310621,-0,29846316059782,-0,317539412936051,-0,327473763846075,-0,358294139033188,-0,308722093885488,-0,271375380435868,-0,319477136380536,-0,264255715424056,0,442054474284212,-0,123436389463189,-0,0522590357096069,-0,0738654352110513,-0,113729992932849,-0,134160960219386,-0,105951067398084,-0,117266824440546,-0,0877079756078691,-0,0761205585718079,-0,114883626973342,-0,142267030763935,-0,146448837218482,-0,0495842541487554,-0,112205918361012,-0,0890037518025528,-0,126124795544583,-0,077705389790033,-0,069477442670627,-0,107571031445843,-0,0840685296632928,-0,0967915629445043,-0,0749017219063816,-0,106944873780765,-0,142297905798697,-0,105824434704581,-0,129889149061533,-0,109535559223359,-0,0817854936266309,-0,0752892490511091,-0,0830381020700699,-0,102772424887019,-0,112812343997447,-0,142984640488587,-0,111183063138857,-0,11395321485084,-0,0905224844468032,-0,140842691670991,-0,126266710092992,-0,0878481702576315,-0,118928977556602,-0,127033314277183,-0,0929047366528807,-0,152470987399152,-0,126565622515521,-0,0963612371361856,-0,120211448457087,-0,105038650907376,-0,0598446211517475,-0,0810270733241969,-0,0805505039094033,-0,0927443700351143,-0,0837560837774774,-0,0759348899660907,-0,10533261556842,-0,0812224156351126,-0,141434380322421,-0,132004175772597,-0,102859003026681,-0,108814864170673,-0,108566212915988,-0,158362189984691,-0,137896594860244,-0,102898103458457,-0,126964409479322,0,320476637031606,-0,140540248556632,-0,0515646124914327,-0,0985664627733366,-0,101494525509315,-0,0854009930124956,-0,0859062247114863,-0,132607947299893,-0,0992819884897638,-0,10983276500461,-0,0710814260650332,-0,128140992503201,-0,0996777115090293,-0,0696337229195804,-0,06507071694649,-0,133433083224708,-0,0898519583904111,-0,108954463528345,-0,108265941133648,-0,144877777637217,-0,121059843977641,-0,099070598171486,-0,134442253824994,-0,0830621290358331,-0,133967607250661,-0,0775290321782092,-0,0910619152341298,-0,0925555271924719,-0,134354297774076,-0,116627454300146,-0,107622831622497,-0,110512985825286,-0,129850630354955,-0,138332677004552,-0,0743075288971497,-0,0726425149164771,-0,104558694852386,-0,15869415431835,-0,0845973855688018,-0,154046087604857,-0,126734178514686,-0,127662474422156,-0,102708752468492,-0,144459640846699,-0,125989048828203,-0,0972830928115662,-0,0986087484372799,-0,115273089691758,-0,11517544193052,-0,155925047105376,-0,127734403548537,-0,0724112105456505,-0,114970623516508,-0,111314976096132,-0,0643328977942313,-0,0909712668062215,-0,108519313467829,-0,10220285933763,-0,10925517301928,-0,0839662444288603,-0,106620352487449,-0,169490150117882,-0,0990759777861665,-0,0510400271203804,-0,122523271679598,0,292109920783786,7,78702304579599,8,89599540588753,8,58970109728223,9,19111007014589,8,73824846225113,9,14458914414602,8,87246285758228,9,84349198377475,9,39941903667926,7,7651633463826,10,2122437601654,8,62652844565594,9,17178016687864,9,972531232441,7,66829464456322,8,73345063624216,9,21037536203089,7,77062144732666,10,2471130441524,9,66250524091059,8,62660023903135,8,71573934783744,10,0020252986326,8,93365049380112,10,235763524992,9,38362654722938,8,1190510141807,10,065503919197,8,31901843653055,9,96225573939695,9,45100507736404,8,66001360724781,8,82064116024741,7,96703218039941,9,54599877567778,10,202704185999,9,5252213151509,7,67917176073737,9,07158300474371,8,7908575104941,10,1127818018838,9,11928749928964,9,44200465667025,9,67542200557714,8,61723637825768,9,15334590008393,9,92130611861269,10,2559031895611,7,69738433720732,8,18207164539721,8,48364312649609,10,1265886306282,7,90606263338572,9,84914928918398,9,32416158172656,9,10586706156743,10,0248203263605,7,84411051491431,9,3217541724017,9,50625790046901,10,1075730160421,28,0416927565682,10,1288169225857,7,74491216066026,2,84588470495894,82,8551939608042,82,4366702769562,82,6258228122437,82,5653163051875,82,565996520621,82,4521155873795,82,5345795404708,82,1976813794437,82,6673071306679,82,9977368383023,81,9526164540879,82,7695469994557,82,5042313776005,82,387878173038,83,1297661042378,82,8173576722082,82,7600414179991,82,8010350477242,82,063251856552,82,5523078354814,82,5912480595443,82,9742399254608,82,3150926742183,82,8009369755599,82,4580554158105,82,732943269611,82,8212873061138,82,3688922985125,82,567969861743,82,224765513518,82,4131674866877,82,5696077754882,82,7913012738698,82,8982298425593,82,3641434790582,82,3367908054432,82,3662666020635,82,8604772724486,82,7753002338992,82,7183521031359,82,4840395252429,82,6042630527657,82,6011572007697,82,5045733470818,82,6366535624552,82,4942116643534,82,0792035201497,82,3758084823964,