0,5266895;1,390873;0,9872282;0,9211613;4,194455;1,119723;0,3341956;0,3750288;1,127166;4,300993;1,022819;0,7203021;0,3080501;0,9301279;4,271005;-0,8973349;-1,233798;-0,4949018;-0,8835326;-4,187822;-1,495991;-0,3479932;-0,2726364;-1,172;-4,229739;1,17936;0,6558982;0,3926782;0,9167227;4,250445;0,4071386;1,128461;0,467467;1,089033;4,275692;23,53873;23,34302;23,27683;-23,63274;-23,37061;23,4577;23,17266;23,17904;-6,226857;-6,111093;-6,109939;6,138128;6,167236;-5,978765;-6,031843;-6,022858;1,953286;2,394822;1,962572;-2,118847;-2,567023;2,113875;2,221781;2,138682;4,294228;4,06531;3,734807;-4,265536;-3,864404;3,593767;3,894677;3,512827;-2,807055;-2,531781;-2,626199;2,727477;2,554983;-2,640831;-2,857024;-2,824388;1,655512;1,595065;1,828989;-1,533601;-1,730605;1,344319;1,339265;1,208354;14,14376;14,03465;13,80321;-14,41338;-13,79834;14,22298;14,09474;13,82852;-80418,69;80747,96;-80978,9;-80976,41;79824,54;-81084,21;-80698,5;564729,4;-77091,66;77487,29;-77737,95;-77737,08;76486,86;-77852,08;-77433,42;541826;-74198,56;74565,54;-74799,05;-74797,76;73716,45;-74908,44;-74523,65;521509;-65373,95;65745,76;-65993,51;-65995,46;64875,98;-66108,73;-65702,31;459795,5;
